Version 9.9.0
Id 
Min label:-5.03687
Max label:4.56633
bits:18
lda:0
0 ngram:
0 skip:
options: --quadratic AB --quadratic AC --quadratic BM --quadratic CM --quadratic BK --quadratic CK --ignore FI
Checksum: 2411028221
:1
initial_t 0
norm normalizer 1.11089e+09
t 6.08992e+07
sum_loss 41829.1
sum_loss_since_last_dump 7770.78
dump_interval 262144
min_label -5.03687
max_label 4.56633
weighted_labeled_examples 165938
weighted_labels 453.442
weighted_unlabeled_examples 0
example_number 165938
total_features 3372414
total_weight 5.46603e+07
sd::oec.weighted_labeled_examples 131072
current_pass 1
l1_state 0
l2_state 1
C^sno41*M^month8:94:0.0127637
D^date20140916:141:-0.0284083
C^sno28*M^day5:443:0.15724
B^ino67*M^month3:483:-0.0294461
B^ino79*M^month11:532:0.0315454
M^day21:550:-0.0041399
B^ino19*M^day17:815:0.0482495
B^ino47*M^day8:833:-0.278672
B^ino26*M^day23:845:0.0449181
B^ino5*K^BlackFridayM2:994:-0.15873
C^sno23*M^day8:1010:-0.0483015
B^ino8*M^day12:1232:0.0281219
D^date20131129:1278:-0.0317521
B^ino43*M^day31:1355:0.0896757
B^ino44*K^BlackFriday2:1544:-0.0488653
A^wd2*B^ino107:1606:-0.160113
B^ino91*K^BlackFridayM3:1636:-0.163892
B^ino29*M^day15:1670:-0.030057
B^ino102*M^month10:1863:0.0127802
B^ino105*M^day5:1905:-0.00927687
B^ino48*M^year2012:1978:-0.0165119
D^date20140831:2020:-0.118939
B^ino86*M^day7:2183:-0.0308702
B^ino45*M^day2:2211:0.0778286
D^date20120801:2219:0.054379
B^ino46*K^BlackFriday3:2445:-0.427192
D^date20130630:2450:-0.0242102
B^ino108*M^month9:2456:-0.0892823
A^wd5*B^ino3:2489:0.0502758
B^ino54*M^day31:2542:0.0360754
B^ino102*M^month11:2644:-0.0149002
B^ino81*M^day27:2686:0.0647194
C^sno43*K^BlackFriday:2689:-0.0840337
A^wd6*B^ino43:2720:-0.0149915
B^ino75*M^day29:2743:-0.0655317
B^ino46*K^ThanksgivingDay:2800:0.0276878
A^wd2*B^ino104:2890:0.0324209
B^ino45*M^day1:3052:0.163511
B^ino93*M^month7:3123:-0.0322521
B^ino31*K^ThanksgivingDay:3205:0.12556
B^ino70*M^day20:3302:0.0435202
A^wd0*B^ino86:3395:-0.00510073
B^ino13*M^month2:3745:-0.398619
A^wd0*C^sno39:3791:0.0438008
B^ino23*M^day23:3911:0.0075922
B^ino28*K^BlackFriday2:4053:-0.0505574
B^ino9*M^day28:4073:-0.0683968
B^ino31*K^BlackFriday3:4088:-0.262146
B^ino41*M^day1:4301:0.335524
A^wd4*B^ino105:4310:0.00888586
B^ino78*M^day28:4347:0.125027
A^we*B^ino85:4634:-0.0500407
B^ino97*M^year2013:4933:0.00490117
B^ino41*M^day2:4994:0.032671
C^sno42*M^day6:5025:0.0831592
B^ino39*K^BlackFriday:5111:-0.0398064
A^wd6*B^ino60:5112:-0.0107787
B^ino3*M^day16:5203:-0.150437
B^ino51*K^BlackFridayM3:5229:-0.00511193
B^ino23*M^month5:5402:-0.00466537
A^wd1*B^ino16:5505:-0.0504656
C^sno27*M^day2:5526:-0.0122888
A^wd6*B^ino67:5638:0.0740933
C^sno17*M^day14:5680:0.00491047
D^date20140904:5708:-0.027873
C^sno25*M^month10:5813:0.00911975
C^sno27*M^day1:5849:-0.0900867
B^ino82*K^BlackFridayM3:5903:0.573503
A^wd6*B^ino53:6012:0.0325885
C^sno10*M^day9:6082:0.0664816
A^wd6*B^ino44:6129:0.000752211
C^sno19*M^day7:6385:0.0372674
C^sno36*M^day17:6435:-0.0488014
B^ino15*K^ThanksgivingDay:6661:-0.193696
B^ino5*M^day24:6727:-0.0903208
B^ino12*M^month8:6783:-0.0163443
C^sno21*K^BlackFridayM2:7044:0.0575638
B^ino47*K^BlackFriday2:7050:0.738594
C^sno35*M^month9:7315:0.0253532
B^ino53*M^month8:7337:-0.0240805
D^date20120324:7353:-0.00249577
A^wd4*B^ino45:7360:-0.00313902
C^sno20*K^BlackFridayM3:7387:0.000917435
B^ino6*K^BlackFriday1:7631:-0.290948
B^ino40*M^month11:7688:-0.00164056
B^ino44*M^day30:7735:-0.0424392
B^ino16*M^day28:7744:-0.172491
D^date20120902:7767:-0.0279238
D^date20120916:7859:0.034986
B^ino44*M^day8:7875:-0.0298927
B^ino80*M^month6:7895:-0.0239046
A^wd1*C^sno40:7898:-0.0167267
B^ino36*M^day17:7929:-0.0310121
B^ino64*M^month12:7959:-0.0652382
B^ino14*M^month3:7987:0.033066
B^ino38*M^day28:7999:0.0859745
B^ino49*M^day17:8042:-0.00612712
D^date20130413:8123:0.0279813
C^sno43*M^day18:8233:-0.0346372
A^wd5*B^ino18:8295:0.00588965
B^ino35*M^month10:8305:0.00394511
B^ino56*M^month12:8429:-0.0639329
B^ino1*M^day8:8445:0.0330627
B^ino69*K^BlackFriday1:8485:-0.387558
B^ino88*M^month4:8547:0.0147798
D^date20130802:8862:0.0145323
B^ino108*K^BlackFridayM3:9013:-0.147353
B^ino104*M^month6:9039:-0.00513172
B^ino47*M^day31:9162:-0.116247
B^ino51*M^month12:9241:0.0111072
B^ino34*M^day25:9394:-0.0258288
B^ino45*M^day22:9513:0.0115736
B^ino43*M^day8:9664:0.101838
B^ino41*M^day26:9695:-0.0441272
D^date20121026:9964:0.0705187
B^ino5*M^year2013:9997:-0.00769258
D^date20141003:10010:-0.00726271
B^ino103*M^day8:10011:-0.0306461
M^month8:10101:0.00567961
C^sno28*M^month11:10316:-0.0135949
B^ino6*M^month5:10404:-0.0513892
B^ino85*M^day4:10631:-0.0348294
B^ino54*M^day30:10641:-0.0193172
A^wd2*B^ino42:10926:-0.0373018
B^ino15*M^day12:11092:0.0425534
C^sno10*M^day7:11130:0.00186157
B^ino79*M^day5:11235:0.023613
D^date20120709:11317:-0.0150998
B^ino26*K^BlackFriday1:11387:0.20339
C^sno13*M^day29:11519:-0.0497603
D^date20140617:11558:0.0400438
A^holwe*B^ino85:11593:0.00620055
A^hol*B^ino42:11612:-0.127063
B^ino76*M^month12:11703:-0.000282288
B^ino97*M^day24:11791:-0.013401
B^ino32*K^BlackFridayM2:11837:-0.244288
A^wd3*B^ino69:12010:-0.107536
A^wd4*C^sno43:12167:0.019423
A^wd2*B^ino21:12248:-0.0801821
A^wd6*C^sno37:12424:0.00970221
B^ino84*M^month9:12455:0.0275407
A^wd6*B^ino84:12498:-0.0085628
B^ino25*M^day14:12512:0.0871472
C^sno33*M^day1:12558:0.22953
D^date20120329:12861:-0.0172534
C^sno25*M^day5:12881:0.000650406
C^sno31*M^day30:13022:-0.0417295
B^ino6*M^day23:13049:-0.209949
C^sno43*M^month7:13246:0.0109797
B^ino68*M^day23:13380:-0.0488675
B^ino12*M^day25:13626:0.000518799
C^sno43*M^day29:13651:-0.0700197
B^ino75*K^BlackFriday:13669:-0.238215
C^sno39*M^day14:13958:0.109161
B^ino50*M^month4:14025:0.00888038
B^ino8*K^BlackFriday3:14076:0.164785
C^sno17*M^day28:14181:-0.105334
B^ino76*M^month9:14190:-0.0473497
B^ino104*M^month5:14330:0.00434685
B^ino40*M^day5:14335:-0.0719829
C^sno30*M^day16:14372:0.0326617
B^ino105*M^month1:14376:-0.0197787
B^ino11*K^ThanksgivingDay:14555:0.25338
C^sno44*M^day1:14605:-0.086607
B^ino37*M^day6:14607:0.0428541
A^wd4*B^ino27:14621:-0.0234785
C^sno16*M^day6:14659:-0.035141
B^ino29*M^month4:14680:0.014693
D^date20130423:14694:-0.0028553
C^sno30*M^day13:14748:0.054538
B^ino20*M^day22:14854:-0.0746772
B^ino56*M^month9:14900:-0.0259979
B^ino19*K^BlackFriday1:15105:0.270091
B^ino55*M^day30:15221:0.0675983
B^ino11*K^BlackFriday3:15270:-0.123796
B^ino22*M^day23:15431:0.12635
D^date20131215:15436:-0.00056529
D^date20120317:15508:-0.0435674
B^ino43*K^BlackFriday2:15627:0.193761
B^ino33*K^BlackFridayM3:15675:-0.242518
C^sno40*M^day21:15816:-0.0132761
B^ino31*M^day12:15828:-0.015631
D^date20121208:15928:0.0380301
A^wd0*B^ino37:15990:0.0111437
B^ino101*M^day14:16033:-0.00662112
B^ino51*M^month9:16064:-0.00875878
B^ino45*M^day26:16126:-0.0114031
B^ino80*K^BlackFriday1:16137:-0.0450325
B^ino16*M^day14:16149:0.0824435
B^ino12*M^day21:16172:0.0203519
B^ino96*M^month2:16211:-0.099211
D^date20140131:16443:0.0495059
B^ino6*M^day6:16511:0.208706
D^date20130513:16610:0.0161951
C^sno43*M^day22:16620:-0.0297563
A^wd2*B^ino109:16782:-0.127172
B^ino53*K^BlackFriday3:16872:-0.262274
B^ino39*M^day26:16973:0.0882812
B^ino81*M^month9:16987:-0.124076
D^date20140918:17009:-0.00909472
C^sno17*M^day30:17018:-0.0876086
B^ino53*K^ThanksgivingDay:17045:0.142217
C^sno26*M^month3:17058:-0.0083189
C^sno39*M^day31:17075:0.0599694
A^holwe*B^ino68:17088:-0.0047307
D^date20120703:17243:0.0620248
B^ino96*K^BlackFridayM2:17278:-0.0077796
C^sno25*M^day3:17453:0.0230532
B^ino15*M^month8:17465:-0.142215
B^ino8*M^day25:17656:-0.0298984
A^wd2*B^ino45:17706:-0.066246
A^wd1*C^sno29:17792:0.00749779
B^ino102*M^day15:17801:-0.025125
C^sno33*M^day20:17934:-0.00715327
D^date20120211:17938:0.0494156
D^date20120521:18053:-0.0499377
B^ino4*M^month2:18350:-0.0123038
D^date20130814:18370:-0.0116241
C^sno29*M^day9:18395:-0.0133569
B^ino20*M^day10:18465:-0.00684857
D^date20120204:18586:0.0720863
B^ino87*K^BlackFriday2:18775:-0.138696
C^sno10*M^day4:18879:0.0279694
B^ino2*M^month2:19192:-0.0451362
B^ino16*M^day31:19232:-0.174227
C^sno27*M^month7:19278:-0.0221336
B^ino97*M^month2:19335:-0.3448
B^ino37*M^day23:19337:-0.0493193
B^ino41*M^day29:19383:-0.0697286
B^ino58*M^month12:19391:0.0793586
A^wd3*C^sno11:19413:-0.0188193
D^date20131219:19448:-0.055428
B^ino41*M^day10:19503:0.233428
C^sno32*M^month8:19546:0.00026083
D^date20130623:19676:-0.000412226
C^sno4*M^day25:19737:-0.0229728
C^sno30*M^day9:19756:0.102085
B^ino63*M^day4:19884:0.0610831
A^wd3*B^ino34:19943:0.120012
A^holwe*B^ino95:19967:0.307812
C^sno42*K^BlackFriday1:19985:-0.085499
D^date20120706:20037:-0.0223417
A^wd3*B^ino17:20072:-0.0397806
A^wd3*B^ino58:20132:-0.0077033
B^ino8*M^day21:20206:-0.0239189
D^date20141005:20221:0.107449
B^ino24*M^day31:20427:-0.0973408
B^ino50*M^month1:20580:-0.0635691
B^ino45*M^day29:20630:-0.0350862
B^ino111*M^day6:20721:-0.465658
C^sno19*M^day13:20729:-0.068702
B^ino88*M^month11:20832:-0.105386
B^ino37*M^month5:20948:0.0234599
A^holwe*C^sno30:21055:-0.0420825
B^ino75*M^day2:21122:0.0453486
A^wd4*B^ino104:21152:0.0221181
C^sno12*K^ThanksgivingDay:21202:0.18119
B^ino93*M^day2:21227:-0.0711474
B^ino103*M^day28:21232:0.0275531
D^date20131019:21411:-0.00934124
A^we*B^ino5:21425:0.0893669
C^sno22*M^day12:21580:-0.0125356
B^ino99*M^month4:21618:-0.00998163
C^sno25*M^day15:21627:-0.00877357
C^sno33*K^BlackFriday:21926:-0.0816591
D^date20130805:21934:0.0539117
B^ino34*K^ThanksgivingDay:21963:0.114831
B^ino102*M^day3:21983:-0.0470674
A^wd6*B^ino37:22193:0.0705695
B^ino34*K^BlackFriday3:22198:-0.247479
B^ino60*M^day27:22268:0.0131657
B^ino45*M^day10:22286:0.0701649
B^ino95*K^BlackFriday1:22451:-0.0697365
C^sno28*M^month4:22607:-0.0064404
B^ino81*M^month12:22658:0.080121
C^sno13*M^day22:22848:-0.0073247
D^date20120913:22931:0.0189252
B^ino9*M^day31:23177:-0.100388
B^ino106*M^month3:23318:-0.0465481
C^sno43*M^day26:23355:-0.115993
B^ino90*M^day18:23390:0.0350673
B^ino48*K^BlackFridayM3:23436:0.266507
A^we:23547:0.0808747
D^date20120605:23550:0.0716507
D^date20140321:23568:-0.0190058
B^ino109*K^BlackFridayM2:23579:0.187752
A^we*B^ino66:23681:0.0294158
B^ino37*M^day17:23697:-0.0354741
C^sno16*M^day17:23773:-0.00193954
A^wd3*B^ino51:23842:0.0305707
B^ino35*M^month4:23905:-0.00480843
B^ino42*M^day31:23962:0.0418077
C^sno37*K^BlackFridayM3:24100:0.041995
B^ino41*M^day18:24269:0.0291257
C^sno26*M^day16:24728:-0.0237625
A^wd2*B^ino27:24823:0.0272844
C^sno39*M^day19:24904:0.0496402
B^ino105*M^day15:24923:0.0269415
C^sno17*M^day31:25093:-0.070612
A^holwd*B^ino64:25226:0.206304
B^ino98*M^day9:25239:-0.106427
C^sno39*M^day30:25292:0.11336
B^ino86*M^month3:25357:-0.0025084
B^ino20*M^day20:25539:0.0374579
D^date20140724:25579:0.0906096
D^date20140517:25622:-0.0759709
C^sno1*M^month6:25643:-0.0455344
D^date20120929:25704:0.0639107
A^wd5*B^ino42:25706:0.0994775
B^ino37*K^BlackFriday1:25791:-0.022151
C^sno16*K^BlackFriday1:25843:0.0979183
A^wd6*B^ino86:25988:-0.0189581
B^ino72*M^day19:26043:0.000618696
D^date20130430:26045:0.0317161
B^ino78*M^day30:26084:-0.236637
A^wd6*C^sno39:26120:-0.289931
D^date20140214:26143:-0.0743234
B^ino72*M^day8:26315:-0.0281188
B^ino63*M^day16:26329:-0.0355105
B^ino11*M^month8:26343:-0.000307083
A^wd3*B^ino73:26443:0.00613451
D^date20140703:26457:0.037365
C^sno21*M^month2:26537:-0.0207238
D^date20120311:26656:0.0499649
D^date20131121:26701:0.0876479
D^date20120828:26779:-0.00789952
B^ino16*M^day19:26843:-0.0931344
B^ino81*K^BlackFridayM3:26870:0.205409
B^ino67*M^day7:27241:-0.0913353
C^sno33*M^day29:27252:-0.065876
B^ino83*K^BlackFridayM2:27308:-0.0354156
C^sno1*M^day23:27331:0.00573397
B^ino38*M^day8:27348:-0.0932493
B^ino44*M^day28:27432:-0.0137246
B^ino16*M^day30:27487:-0.204591
B^ino16*M^day8:27563:0.156257
B^ino99*M^day15:27564:-0.0703373
B^ino8*M^month8:27581:-0.0262659
A^wd4*B^ino33:27602:0.023021
B^ino48*M^month12:27640:0.0838499
A^wd1*B^ino41:27740:-0.0635538
A^wd0*B^ino49:27791:-0.0108633
C^sno33*M^month7:27801:0.0354788
A^holwe*B^ino5:27874:-0.0656197
D^date20140114:27896:-0.0348396
A^we*B^ino106:27908:-0.0292795
A^holwe*B^ino78:27914:-0.104759
D^date20130602:27990:-0.0988898
C^sno43*M^day2:28006:0.091924
A^we*C^sno30:28012:-0.0033803
C^sno33*M^day10:28140:0.305213
C^sno43*M^day1:28201:0.006037
C^sno35*M^day11:28398:0.0203071
B^ino45*K^BlackFriday:28484:-0.0561709
B^ino95*M^day17:28573:0.0120561
C^sno1*M^month5:28830:0.00372529
B^ino94*K^BlackFridayM2:28916:0.00262189
A^wd5*B^ino59:28933:-0.050909
A^wd1*B^ino31:28996:-0.0217524
C^sno15*M^month8:29086:-0.014699
B^ino26*M^day6:29131:0.000662804
B^ino90*K^BlackFriday:29174:0.194825
B^ino79*M^month4:29207:0.0102203
B^ino38*K^BlackFriday2:29215:0.393022
B^ino59*M^day23:29254:0.0773196
D^date20130904:29259:0.0316761
C^sno27*K^BlackFriday:29297:-0.066493
B^ino101*K^BlackFriday2:29396:-0.283667
B^ino83*M^day24:29449:-0.0350401
C^sno24*M^day13:29596:0.072051
B^ino39*M^day2:29712:-0.122006
A^wd1*B^ino36:29889:-0.0325789
B^ino82*M^day27:30087:0.0304067
D^date20130122:30116:-0.0333059
D^date20130608:30209:-0.00734782
A^wd4*B^ino21:30258:0.0216784
A^wd3*C^sno33:30460:-0.0107865
B^ino107*K^BlackFridayM3:30533:0.331212
D^date20140917:30552:-0.0139518
B^ino24*K^BlackFriday2:30603:-0.362302
B^ino64*M^day11:30643:-0.106326
C^sno28*M^day3:30663:0.00566053
A^we*B^ino23:30774:0.0752089
B^ino88*M^day5:30871:-0.0170109
K^ThanksgivingDay:31049:-0.406169
D^date20120206:31073:-0.0315437
B^ino9*M^day19:31090:-0.0584254
A^wd0*C^sno36:31420:0.0147376
B^ino71*K^BlackFriday1:31430:-0.102771
B^ino49*M^day6:31476:-0.00811696
B^ino9*M^day30:31478:-0.142347
C^sno36*M^day6:31933:0.0800455
A^we*B^ino68:32147:0.0758913
A^holwd*B^ino36:32182:-0.00659323
B^ino42*M^day30:32229:0.0969746
B^ino31*M^day25:32252:-0.020982
B^ino42*M^day19:32353:0.124438
D^date20120814:32676:-0.0355155
B^ino5*M^month2:32719:-0.00570416
A^wd0*C^sno28:32748:0.00567555
B^ino58*M^day22:32819:-0.0990188
A^wd2*B^ino106:32920:0.0384629
D^date20140603:32997:0.053051
B^ino15*M^day15:33028:-0.0610647
B^ino108*M^day20:33032:-0.193696
B^ino84*M^day18:33079:-0.0216832
B^ino99*M^day25:33236:0.0327654
A^wd6*C^sno14:33496:-0.00388551
B^ino97*M^day17:33682:0.0477607
B^ino24*M^day4:33758:0.268336
B^ino32*M^month6:33781:0.00119615
M^day5:33890:0.001616
B^ino70*M^month9:33910:-0.0555558
C^sno17*M^day13:34013:0.207218
B^ino75*K^BlackFridayM3:34032:-0.367545
B^ino62*M^day3:34189:-0.126771
B^ino86*M^day19:34220:0.0405862
B^ino45*M^day11:34305:-0.0165374
B^ino12*M^month1:34353:-0.0269082
B^ino38*M^day4:34378:-0.207175
C^sno33*M^day27:34491:-0.0485535
B^ino22*M^day24:34498:0.551266
B^ino86*M^day8:34524:-0.065762
A^hol*C^sno30:34562:-0.00918102
B^ino16*M^day4:34613:0.0975502
A^hol*B^ino106:34666:0.0239761
B^ino66*K^BlackFridayM2:34738:-0.268497
D^date20140707:34765:0.00719929
D^date20140530:34843:0.018265
B^ino65*K^ThanksgivingDay:34903:0.113901
B^ino6*M^day24:34940:-0.0616429
C^sno32*M^day15:35175:-0.0134594
B^ino77*M^month3:35354:0.054065
C^sno30*M^day28:35364:-0.00701141
B^ino110*M^day15:35401:-0.315747
C^sno37*M^day1:35609:-0.0469978
B^ino100*K^BlackFriday3:35618:0.639899
B^ino65*K^BlackFriday3:35626:0.74311
D^date20120722:35650:-0.00711322
C^sno43*M^month12:35680:0.00719047
C^sno38*M^month5:35686:-0.00720358
D^date20140824:35973:0.072727
B^ino33*K^BlackFriday:36014:-0.0940065
B^ino47*M^day7:36122:0.188006
B^ino16*M^month3:36474:-0.0120418
B^ino104*K^BlackFridayM2:36487:-0.0771179
C^sno3*M^month4:36503:0.0109146
B^ino48*M^day1:36529:0.189375
D^date20120710:36535:0.0571761
B^ino38*M^month3:36613:-0.0199723
B^ino2*M^month5:36776:-0.0190897
B^ino101*M^month3:36814:0.0100026
B^ino5*K^BlackFriday1:36852:-0.0582891
A^wd2*B^ino68:36879:-0.0706067
B^ino12*M^month11:37023:0.0166457
C^sno43*M^month9:37305:-0.0246782
B^ino46*M^day15:37361:-0.100086
B^ino96*M^day6:37592:-0.241804
B^ino76*M^day29:37764:-0.110974
B^ino84*M^day10:37845:-0.00379491
A^wd4*B^ino2:37866:-0.0304978
B^ino76*M^day10:37916:0.0204961
C^sno20*M^month7:38001:-0.00847292
B^ino40*M^month8:38120:-0.0824873
C^sno20*M^day10:38148:0.0173228
D^date20121127:38191:-0.00773072
A^wd2*B^ino23:38314:-0.0306118
D^date20140613:38338:0.0313241
B^ino9*M^day4:38556:0.0208495
C^sno11*M^month5:38627:-0.00774622
B^ino43*M^day9:38691:0.0352247
B^ino68*K^BlackFridayM2:38756:0.350552
B^ino107*M^day26:38762:-0.0972042
C^sno21*K^BlackFriday1:38802:-0.183752
B^ino87*M^day13:38863:-0.0121746
A^holwe*B^ino45:38885:-0.0704656
B^ino42*M^month3:39104:-0.00913763
D^date20130610:39159:0.0529325
B^ino32*M^day17:39429:-0.071625
B^ino110*M^day3:39455:0.0665872
D^date20131206:39553:0.0266464
B^ino58*M^day26:39908:-0.000450611
D^date20130902:39991:0.0311334
D^date20130117:40158:0.0252998
C^sno13*M^year2014:40320:-0.000310421
B^ino29*K^BlackFriday3:40698:0.475383
B^ino5:40848:-0.0164921
D^date20140723:40854:0.0231018
D^date20121020:40907:-0.0656834
B^ino26*K^BlackFridayM2:41069:0.148023
D^date20130919:41147:-0.0145593
D^date20131013:41151:0.0105615
B^ino5*M^day23:41154:-0.0454133
C^sno27*M^day27:41324:0.0514867
B^ino89*M^month6:41356:-0.0338511
A^we*C^sno8:41357:-0.00228524
B^ino21*M^day29:41436:0.0126998
B^ino39*K^BlackFridayM3:41570:-0.0952556
C^sno11*K^BlackFriday1:41864:-0.0905995
A^we*B^ino105:42144:-0.00998926
D^date20141011:42177:-0.0246217
C^sno15*M^day3:42229:0.0877614
A^wd1*B^ino19:42247:0.00644279
A^wd3*B^ino9:42255:-0.0842993
C^sno10*M^day8:42273:0.053082
B^ino98*M^day28:42399:-0.0558157
C^sno37*M^day22:42460:0.0128825
D^date20131203:42539:0.076647
B^ino86*M^day31:42583:0.0278041
B^ino82*K^BlackFriday:42650:0.610685
C^sno22*M^month1:42863:0.0217216
D^date20121221:43085:-0.0330651
A^we*B^ino45:43190:0.0661705
A^wd3*B^ino41:43213:-0.0845218
B^ino103*M^day7:43328:-0.0583932
B^ino77*M^day13:43416:-0.105643
B^ino57*M^month8:43695:0.00245285
A^wd1*C^sno6:43717:0.0718889
A^wd0*B^ino11:43753:-0.0172081
D^date20130704:43797:-0.0808387
B^ino49*K^BlackFridayM2:43858:-0.152259
C^sno30*M^day14:43889:0.110171
B^ino43*M^day7:43931:0.142584
C^sno9*M^day1:43970:0.009835
B^ino23*K^BlackFridayM2:44135:0.0460861
A^wd5*C^sno4:44202:0.00864434
C^sno35*M^day18:44291:-0.00445366
C^sno36*K^BlackFridayM2:44315:-0.0595977
B^ino69*K^BlackFridayM2:44339:0.0526872
B^ino38*M^day16:44351:-0.00859356
B^ino108*M^day29:44402:-0.0430129
D^date20121212:44448:0.0160613
C^sno6*M^day23:44461:-0.0161622
B^ino16*M^day13:44536:0.0949006
B^ino19*M^day24:44722:0.118321
A^wd3*B^ino36:45136:-0.0598404
A^wd2*B^ino66:45341:-0.0406291
B^ino68:45490:-0.000331163
A^holwe*B^ino27:45624:-0.0321229
A^wd1*C^sno33:45677:-0.0174587
D^date20120914:45817:0.0167685
B^ino80*K^BlackFridayM2:45855:-0.177521
B^ino33*M^day29:45948:-0.0138311
A^we*B^ino92:46128:-0.00875545
C^sno15*M^day15:46243:-0.0434752
C^sno36*M^day24:46270:-0.0532959
B^ino93*M^month12:46317:0.00230527
D^date20130523:46449:-0.0369403
C^sno45*K^ThanksgivingDay:46522:-0.0388319
B^ino23*M^day24:46530:-0.00612402
C^sno24*M^day8:46543:0.0253711
B^ino55*M^day7:46554:-0.0799718
B^ino19*K^BlackFridayM2:46871:-0.170547
B^ino65*M^day12:47366:-0.146637
A^hol*B^ino5:47583:-0.0212386
B^ino5*M^month5:47775:-0.0106678
C^sno43*K^BlackFridayM3:47892:-0.125394
A^holwd*C^sno33:47898:-0.00845742
B^ino42*M^day13:47938:-0.000600576
D^date20140512:48026:0.021477
C^sno31*M^day7:48241:-0.00396585
A^holwe*B^ino15:48246:0.0571647
B^ino87*M^day4:48386:0.0356271
B^ino9*M^day16:48617:-0.0184214
C^sno10*K^BlackFriday2:48618:-0.0370574
C^sno25*M^day25:48643:0.0358484
A^wd2*B^ino5:48685:-0.0823259
D^date20141027:48734:0.0120671
B^ino106*M^day8:48839:-0.0340569
B^ino8*M^day3:48854:0.243133
B^ino15*M^month4:48858:-0.0760553
C^sno20*M^day20:48870:-0.0130539
C^sno26*K^BlackFriday2:49080:-0.145831
B^ino90*K^BlackFridayM3:49251:-0.33228
B^ino48*M^day18:49329:-0.0230258
C^sno19*M^day14:49684:-0.0636461
B^ino82*M^day1:49714:-0.0314226
A^wd3*B^ino65:49787:0.0161858
B^ino108*M^day26:49946:0.0210695
B^ino47*M^day16:50346:-0.182042
B^ino1*M^month3:50476:0.0439122
B^ino85*M^day19:50793:0.00134802
A^holwd*C^sno26:50846:-0.0913846
C^sno32*M^month11:50874:-0.0214772
B^ino33*M^day22:50883:-0.0607352
B^ino107*K^BlackFriday:50896:0.144629
A^we*B^ino42:50994:0.033005
C^sno34*M^day9:51123:-0.0725086
C^sno18*M^month6:51125:-0.0523186
B^ino17*M^day30:51127:0.0326791
B^ino8*M^day5:51370:0.492077
B^ino43*M^day4:51550:0.0566735
B^ino40*K^BlackFriday3:51625:-0.153873
C^sno12*M^day15:51667:0.0776989
C^sno20*M^day1:51686:0.0652688
B^ino58*K^BlackFriday:51806:0.0701487
C^sno20*M^day2:51881:0.0373611
B^ino76*M^day2:52145:-0.0877256
A^wd4*B^ino23:52288:-0.0504029
B^ino84*M^day2:52344:-0.0214145
A^wd6*C^sno7:52391:0.00553107
C^sno17*M^day7:52437:0.132565
D^date20130331:52553:-0.0435195
A^hol*B^ino2:52722:-0.173651
A^hol*B^ino63:52737:-0.114003
D^date20120213:52785:0.0242407
A^wd5*C^sno30:52788:-0.0174422
C^sno33*M^month9:52894:-0.00862908
B^ino80*M^month2:53042:0.0130465
B^ino84*M^day1:53047:-0.0207684
B^ino96*K^BlackFriday1:53096:-0.560005
C^sno25*K^ThanksgivingDay:53114:0.0534897
B^ino60*M^day22:53132:-0.0826609
D^date20130414:53154:0.0149059
B^ino23*M^month2:53322:-0.026067
C^sno37*M^day29:53347:0.00911427
C^sno10*M^day28:53450:-0.0191853
B^ino28*M^day16:53493:0.0188129
A^wd3*B^ino16:53520:-0.0548801
D^date20140104:53527:0.0813713
D^date20121215:53751:0.0489821
B^ino5*M^day6:53828:0.0501137
B^ino98*M^day19:54020:0.042805
B^ino30*K^BlackFriday2:54025:-0.300673
B^ino94*M^day23:54228:0.0177023
B^ino72*M^day9:54312:0.0615354
D^date20120322:54337:-0.026201
B^ino60*M^day26:54363:0.0280669
A^holwe*B^ino107:54409:0.0062151
B^ino64*M^day22:54427:0.0165787
D^date20140327:54641:-0.0269878
B^ino107*M^day20:54648:-0.0275989
B^ino48*M^day29:54731:0.0615332
B^ino102:54747:0.000855684
B^ino79*K^ThanksgivingDay:54984:-0.0105288
B^ino36*M^month2:55020:-0.0217109
B^ino62*M^month10:55061:-0.0181248
B^ino55*M^day4:55071:-0.07356
C^sno3*M^day5:55139:0.0327327
B^ino92*M^day13:55144:0.0859473
B^ino49*M^month2:55167:0.0085907
B^ino44*M^day13:55440:-0.0274935
B^ino101*M^day9:55548:0.112504
A^wd4*C^sno30:55578:-0.00963211
B^ino44*M^day16:55592:-0.00968289
B^ino16*M^day9:55624:0.107099
A^wd4*B^ino106:55666:0.0353253
A^holwe*B^ino104:55685:-0.0116844
A^wd3*C^sno40:55883:-0.0483
C^sno2*M^day23:56035:-0.0454378
B^ino95*K^BlackFridayM2:56229:-0.0413101
C^sno44*M^month12:56388:-0.00207305
B^ino33*M^day26:56596:0.188901
M^month4:56726:-0.0083065
B^ino85*K^BlackFriday2:56786:-0.0156372
D^date20130319:56792:-0.0379903
B^ino89*M^day6:56802:-0.0255342
B^ino34*M^day3:56988:-0.0311987
B^ino45*K^BlackFridayM3:57041:0.0397038
C^sno6*M^day6:57131:0.0804
B^ino17*K^BlackFriday2:57224:-0.121401
A^we*B^ino33:57252:-0.0287731
D^date20140120:57633:0.0789206
B^ino8*M^month11:57693:0.0530775
B^ino77*M^day7:57744:0.270573
B^ino84*M^day22:57842:0.0255816
B^ino43*M^day16:57899:-0.114777
A^wd3*B^ino81:57911:-0.0763276
C^sno40*M^month4:57976:-0.0288541
C^sno19*M^day28:58177:0.051019
D^date20131031:58254:-0.119755
C^sno38*M^day6:58301:0.0264843
D^date20130627:58710:-0.0695877
A^hol*C^sno4:58780:-0.0216119
B^ino16*M^day7:58864:0.0956018
B^ino10*M^day8:58884:-0.0142679
B^ino97*M^day6:58892:-0.0383561
B^ino93*M^day27:58897:0.0301232
B^ino47*M^month3:59024:0.0344081
B^ino83*K^BlackFriday1:59066:0.171706
B^ino10*M^day30:59120:-0.00721216
B^ino73*M^day4:59272:-0.0328648
A^wd4*B^ino5:59335:-0.0367794
B^ino61*M^month12:59447:-0.0659649
C^sno3*M^month1:59450:-0.0175209
A^wd5*B^ino79:59490:-0.109883
B^ino37*K^BlackFridayM2:59561:0.289104
C^sno16*K^BlackFridayM2:59621:-0.0631506
D^date20140125:59874:0.0316246
B^ino48*K^BlackFriday:59929:-0.0174117
B^ino4*M^day6:59941:-0.0260694
A^wd1*B^ino69:60027:0.0195777
C^sno45*M^month8:60294:0.0210924
D^date20130515:60361:-0.00735903
D^date20140705:60585:-0.0926085
B^ino82*M^day22:60663:-0.000344276
C^sno15*M^month1:60880:0.00607181
D^date20140108:60993:0.0285401
B^ino73*M^month3:61127:-0.0265756
C^sno5*M^day6:61378:-0.0204148
C^sno17*M^day9:61549:0.124908
C^sno9*M^day29:61624:0.0197959
B^ino98*M^day31:61695:-0.0319865
B^ino27*K^BlackFriday:61839:0.18091
C^sno10*M^day14:61855:0.0421183
B^ino109*M^month6:61907:-0.00601602
B^ino70*M^year2012:62189:0.00381112
B^ino61*M^month9:62190:-0.034394
B^ino100*M^day21:62256:-0.022043
B^ino3*M^day31:62259:-0.0414107
B^ino99*K^BlackFriday3:62416:0.647878
D^date20130214:62542:-0.0714362
B^ino9*M^day7:62553:0.0276802
A^wd2*B^ino102:62566:0.0599225
C^sno29*M^day8:62776:0.0111167
B^ino18*K^ThanksgivingDay:62835:0.406144
C^sno29*M^day30:62924:-0.01425
B^ino108*M^day1:62984:0.118838
B^ino18*K^BlackFriday3:62990:-0.193048
B^ino71*K^BlackFridayM2:63184:-0.097285
B^ino96*M^day17:63302:0.011807
D^date20120911:63404:-0.0482826
A^hol*B^ino85:63604:0.0525243
B^ino107*M^day29:63746:0.00422978
B^ino105*K^BlackFriday3:63783:-0.133156
B^ino35*K^ThanksgivingDay:63934:0.19422
B^ino21*M^day2:63977:0.0464187
B^ino105*K^ThanksgivingDay:64090:0.229772
B^ino35*K^BlackFriday3:64195:-0.124619
D^date20121018:64519:-0.0608068
C^sno30*M^day19:64703:-0.0641243
B^ino94*K^BlackFriday1:64738:0.232867
B^ino67*K^BlackFriday2:64761:-0.57588
A^we*B^ino54:64814:-0.127059
A^wd6*B^ino47:64843:-0.00860929
C^sno22*M^day15:65052:0.0360072
B^ino39*M^year2012:65108:0.0188978
B^ino10*K^BlackFriday2:65231:-0.239019
A^wd2*B^ino85:65414:0.0419581
C^sno30*M^day8:65487:0.0601916
D^date20141023:65520:-0.00557208
B^ino49*K^BlackFridayM3:65636:-0.0738597
B^ino38*K^ThanksgivingDay:65637:0.070698
B^ino101*K^ThanksgivingDay:65710:0.289487
B^ino16*K^ThanksgivingDay:65818:-0.791423
C^sno19*M^day5:65840:0.211503
A^wd4*C^sno27:66007:-0.0101843
D^date20130615:66175:0.0351632
A^wd4*B^ino34:66273:0.0125303
B^ino88*M^day4:66451:0.0596445
B^ino101*K^BlackFriday3:66515:-0.187155
C^sno20*M^day17:66517:-0.00880027
C^sno2*M^day2:66695:0.0252912
B^ino84*M^day17:66820:0.0134027
D^date20130425:66860:-0.0345635
B^ino69*K^BlackFridayM3:67077:0.311591
B^ino51*M^month5:67110:-0.00897288
A^wd3*B^ino54:67166:0.0125673
B^ino24*K^BlackFriday3:67212:0.456866
B^ino28*M^day21:67264:0.0187216
B^ino102*M^day9:67290:-0.0311222
B^ino100*M^month3:67391:0.008883
B^ino23*K^BlackFridayM3:67409:0.0953789
D^date20130218:67431:0.0612564
B^ino97*M^day18:67489:0.0700665
A^wd6*B^ino77:67497:0.0516496
C^sno2*M^day1:67528:0.232438
A^wd6*B^ino50:67533:-0.0408258
B^ino84*M^month5:67649:0.00374699
D^date20140915:67889:-0.0182097
B^ino39*K^BlackFridayM2:67924:-0.140466
C^sno43*M^day24:67975:-0.0484011
C^sno13*K^BlackFridayM2:67982:0.383783
B^ino45*M^month2:68042:-0.0114889
B^ino88*M^month3:68316:-0.0347197
B^ino5*M^day20:68329:-0.0183923
C^sno11*M^day29:68335:-0.024065
B^ino92*M^day25:68339:-0.180895
C^sno7*M^month9:68340:-0.0218143
K^BlackFriday2:68403:-0.0762739
B^ino32*M^day29:68428:-0.111638
B^ino26*K^BlackFridayM3:68443:0.284509
A^we*C^sno34:68505:0.0236363
A^holwe*B^ino61:68591:-0.0262115
D^date20120408:68627:-0.0605364
B^ino72*K^ThanksgivingDay:68730:0.118983
C^sno11*M^day10:68983:-0.0161288
B^ino25*K^BlackFriday3:69010:0.248179
B^ino107*M^day6:69077:0.0914028
D^date20131213:69193:0.0308414
C^sno5*M^day18:69231:0.0663095
B^ino91*M^day23:69234:-0.0497003
C^sno30*M^day15:69247:0.176123
D^date20130416:69346:-0.0188224
B^ino25*K^ThanksgivingDay:69359:-1.55608
A^wd5*B^ino48:69377:0.055141
B^ino55*M^month8:69388:0.0790133
B^ino44*M^day21:69405:-0.0144429
B^ino13*M^day2:69576:-0.0474744
M^day19:69768:-0.0228133
B^ino9*K^ThanksgivingDay:69811:-0.30484
C^sno38*M^day10:69874:0.111377
B^ino62*M^day28:70016:0.00340557
B^ino18*M^day7:70041:0.0671666
A^wd4*B^ino51:70180:0.00687337
C^sno21*M^day20:70287:0.0151157
D^date20120315:70424:0.0209584
B^ino60*K^BlackFriday1:70484:-0.308749
M^day8:70648:0.00852871
A^wd5*C^sno11:70653:0.000514984
C^sno18*M^day1:70774:0.00220084
D^date20130417:70918:-0.0386317
A^holwe*B^ino16:70963:-0.127906
C^sno10*M^month10:71263:0.0110238
A^wd4*B^ino74:71370:-0.0791395
B^ino68*M^month9:71423:-0.01087
C^sno22*K^BlackFriday2:71527:-0.104745
C^sno38*M^day29:71530:-0.0211248
B^ino80*K^BlackFridayM3:71721:-0.173526
B^ino5*K^BlackFriday:72001:-0.0999279
A^we*B^ino81:72007:0.0701697
B^ino4*M^day10:72042:-0.0166023
C^sno17*M^day12:72046:0.0883558
B^ino33*K^BlackFriday1:72219:-0.250003
D^date20120922:72239:-0.00697947
C^sno10*M^month11:72524:-0.000346184
B^ino37*M^day11:72527:0.0225151
A^wd1*B^ino63:72590:-0.0561883
A^wd6*B^ino55:72715:0.105662
D^date20121130:72885:-0.00452375
A^wd2*C^sno26:73108:0.00720239
A^wd3*B^ino104:73126:0.0300703
D^date20141026:73130:0.0205989
C^sno5*M^month7:73208:-0.00529957
C^sno30*M^day3:73257:0.138103
B^ino55*M^day25:73801:0.0644407
B^ino5*M^month7:73854:0.0116594
D^date20140418:73977:0.000194311
B^ino5*M^day10:73995:0.157628
B^ino37*M^day27:74007:-0.0589919
A^we*C^sno40:74043:0.11013
B^ino91*K^BlackFriday1:74052:0.036551
A^wd4*C^sno6:74066:-0.0783172
C^sno16*M^day27:74075:0.0364089
B^ino98*M^day15:74180:-0.0917389
B^ino9*M^day12:74210:0.0826499
B^ino26*M^month9:74230:0.0467041
C^sno24*M^day5:74325:0.0434427
B^ino74*M^day21:74497:-0.151127
A^wd6*B^ino12:74822:-0.0288172
A^wd6*B^ino8:74832:0.22486
C^sno37*M^day6:74932:-0.0435278
B^ino65*M^day13:74933:0.0114424
B^ino65*M^day16:75021:0.0825987
D^date20120118:75031:-0.03425
B^ino104*K^BlackFridayM3:75185:-0.0421379
C^sno19*M^month10:75220:-0.0148363
A^wd5*C^sno35:75271:0.0814121
B^ino5*M^day29:75411:-0.130352
A^wd6*B^ino93:75623:-0.105319
B^ino64*M^day23:75637:0.0993743
B^ino95*M^day11:75843:-0.0183265
A^wd4*B^ino73:75853:-0.000464439
B^ino80*M^month12:75869:-0.00118399
B^ino99*M^day9:76031:0.254498
A^wd3*B^ino59:76077:0.0197608
B^ino106*M^day5:76125:-0.0547678
B^ino88*M^day13:76126:-0.000587225
D^date20140614:76333:0.0407357
D^date20120715:76337:-0.0514488
B^ino67*M^month4:76380:0.0316222
A^we*B^ino16:76384:0.124715
B^ino8*M^day28:76507:-0.00865936
C^sno17*K^BlackFriday3:76610:0.00584292
C^sno25*M^day7:76688:0.037339
A^wd0*C^sno18:76794:0.0122263
C^sno41*K^BlackFriday2:76824:-0.0630579
C^sno6*M^day10:76900:0.228107
C^sno32*M^day14:76905:-0.0607162
B^ino69*M^month9:76968:0.0397222
C^sno6*M^month7:77073:0.00307012
A^wd1*B^ino85:77307:0.0453019
A^wd4*B^ino19:77456:0.0107248
A^wd5*C^sno33:77524:-0.0192518
D^date20140815:77545:0.00665355
B^ino110*M^day14:77639:0.0572989
B^ino93*K^BlackFridayM2:77743:-0.201155
B^ino49*M^month12:77840:0.00202036
D^date20121217:77843:-0.00254655
B^ino82*K^BlackFriday1:77871:-0.0359013
B^ino16*M^day12:77899:0.0716677
C^sno35*M^month6:78016:-0.000445604
A^wd0*C^sno42:78072:0.00197482
B^ino1*M^day21:78115:0.0113871
D^date20120507:78217:0.00268817
C^sno42*M^day11:78305:0.0291195
A^holwe*B^ino87:78334:-0.0316019
B^ino80*M^month9:78468:0.00524306
C^sno10*M^day5:78523:-0.00757217
C^sno33*M^month2:78632:-0.0107284
C^sno45*M^day4:78741:0.00357628
B^ino5*M^day18:78825:-0.0198319
B^ino43*M^day21:78878:-0.00999737
B^ino77*M^day12:78891:0.15726
B^ino86*M^month10:79266:0.00372696
B^ino12*K^BlackFriday2:79417:-0.0856564
B^ino69*M^month12:79473:-0.02369
A^wd5*C^sno6:79484:-0.126204
B^ino17*M^day15:79603:-0.00982428
B^ino47*M^month8:79820:0.350227
A^wd2*B^ino69:79878:-0.043242
B^ino86*M^month11:80049:-0.0396776
B^ino54*M^day21:80059:0.0749083
A^holwd*C^sno4:80228:-0.00594521
C^sno21*M^day10:80237:0.149521
B^ino30*M^day15:80498:-0.109845
C^sno18*M^day22:80563:0.0237632
B^ino6*K^BlackFridayM3:80623:0.261402
C^sno44*M^month2:80683:0.000823736
B^ino87*K^ThanksgivingDay:80685:0.377341
C^sno20*K^BlackFriday1:80891:-0.0291097
B^ino34*M^day19:80906:0.0537779
B^ino84*K^BlackFriday1:81194:-0.0768876
A^wd5*B^ino73:81763:-0.00382924
B^ino46*M^day31:82122:-0.588867
D^date20130203:82359:-0.0609434
A^wd1*B^ino68:82546:-0.0487678
C^sno7*M^day27:82641:0.00643492
B^ino37*K^BlackFridayM3:82847:0.177656
C^sno16*K^BlackFridayM3:82899:-0.0508316
B^ino54*K^ThanksgivingDay:82900:0.473815
C^sno10*M^day3:83143:0.0135555
A^wd1*C^sno16:83213:-0.011678
C^sno15*M^day8:83219:0.0184319
C^sno6*M^day26:83348:-0.0193598
A^wd6*B^ino76:83541:-0.019316
C^sno15*M^day19:83555:-0.049232
B^ino31*M^day31:83647:-0.00965643
A^wd6*B^ino96:83692:-0.00139022
C^sno44*K^BlackFridayM2:83718:-0.039505
D^date20130516:83722:-0.0150228
D^date20121227:83770:0.0200438
B^ino89*M^day26:83805:-0.0422039
D^date20140610:83904:0.00325751
A^wd1*B^ino23:83927:-0.0105016
D^date20130119:83971:0.00182819
B^ino27*M^day23:83980:-0.11408
C^sno1*M^month9:84088:-0.014185
C^sno18*M^day10:84116:0.0123887
B^ino86*M^month4:84146:0.012305
B^ino5*M^day26:84219:-0.103676
B^ino42*M^month8:84380:0.188645
B^ino97*M^day1:84385:-0.202711
A^wd2*B^ino13:84439:0.0302811
B^ino11*K^BlackFriday2:84641:-0.0157406
B^ino92*M^day12:84699:-0.182162
B^ino97*M^day2:84718:-0.0579393
A^we*B^ino36:84768:0.0331416
C^sno21*M^day22:84810:-0.0191252
C^sno29*M^month11:84821:0.0365789
B^ino2*M^day2:84881:0.0616803
A^wd2*B^ino51:84942:0.0110676
B^ino7*M^day14:85002:-0.0357001
C^sno38*M^day1:85008:0.167694
A^wd0*B^ino8:85143:0.212587
B^ino67*M^month1:85233:-0.1416
B^ino28*M^day12:85246:-0.135494
D^date20130806:85378:0.0493035
B^ino103*K^ThanksgivingDay:85418:0.847255
B^ino9*M^month8:85647:0.021481
A^we*B^ino31:85669:0.00474405
C^sno18*M^day29:85772:-0.00816917
C^sno38*M^day2:85855:0.072022
A^wd0*B^ino93:85920:-0.124575
B^ino81*K^BlackFriday1:85974:-0.0375514
B^ino65*M^day9:86021:-0.0482719
B^ino32*M^day1:86070:0.0394318
C^sno28*M^day13:86130:0.0398076
D^date20131222:86178:-0.143398
B^ino25*M^month8:86227:0.0394943
B^ino17*M^day5:86233:-0.0844617
B^ino79*M^day4:86247:0.0211248
B^ino73*M^day12:86262:-0.00870228
B^ino102*M^month3:86504:0.00961447
B^ino94*M^day10:86557:0.0574167
B^ino85*M^day5:86659:-0.156228
A^wd5*C^sno26:86864:-0.111195
D^date20120102:86901:0.0658443
A^we*B^ino41:86973:0.0357158
A^wd3*B^ino45:86982:-0.133765
A^we*B^ino64:87068:0.165789
C^sno10*M^day15:87185:0.0877445
D^date20121019:87329:-0.050344
A^wd5*B^ino56:87382:0.0152931
B^ino94*M^day29:87429:0.04724
C^sno42*M^year2014:87561:0.000795603
C^sno4*M^day8:87761:0.0149033
D^date20131116:88018:-0.00275373
A^wd0*B^ino25:88077:-0.0622327
B^ino18*M^day16:88105:0.140836
C^sno3*K^BlackFriday2:88114:-0.119938
A^wd2*C^sno27:88125:-0.00538301
D^date20120910:88139:-0.00194407
B^ino6*M^day27:88167:-0.0550735
C^sno31*K^ThanksgivingDay:88219:0.0288894
B^ino102*M^day4:88231:-0.0474315
B^ino36*M^day11:88359:-0.0276687
C^sno17*M^day25:88390:-0.0805793
D^date20131130:88464:-0.0282631
B^ino18*M^day13:88465:-0.01108
B^ino96*K^BlackFriday:88541:-0.479746
C^sno18*M^day18:88694:-0.00836277
C^sno22*M^day14:88850:0.0117464
C^sno2*M^day10:88874:0.191978
D^date20131014:89150:0.0376487
A^wd1*B^ino6:89321:-0.0542455
B^ino58*K^BlackFriday1:89323:-0.018379
A^hol*B^ino34:89337:0.00248075
A^wd2*C^sno11:89401:-0.0461345
B^ino52*M^month12:89525:-0.0184686
B^ino71*K^BlackFridayM3:89574:0.17055
D^date20120308:89712:0.0298717
A^we*B^ino9:89727:0.0552969
B^ino69*M^day11:89813:-0.164598
B^ino27*M^day17:89876:-0.0575745
B^ino106*M^day3:89889:-0.0171986
B^ino16*M^month8:89894:0.0161045
D^date20121206:89902:-0.0069468
B^ino8*M^day8:89904:0.0332623
B^ino8*M^day30:90052:-0.0691648
A^wd3*B^ino105:90064:0.049015
A^wd2*C^sno33:90128:-0.0140605
A^wd2*B^ino29:90375:-0.0176811
B^ino73*K^ThanksgivingDay:90535:0.146158
B^ino9*M^day25:90570:-0.0865779
C^sno25*M^day16:90656:-0.0262048
C^sno29*M^day5:90786:0.0726931
B^ino73*K^BlackFriday3:90842:0.377223
C^sno36*M^day27:91301:-0.0357685
B^ino107*M^month5:91406:0.11807
B^ino87*M^month8:91409:0.0290442
B^ino31*M^day19:91460:0.00225306
D^date20121229:91498:0.058816
C^sno21*M^day1:91535:0.147946
C^sno15*M^day31:91544:-0.0533957
D^date20121030:91549:-0.0298531
M^day28:91667:-0.0250304
B^ino2*M^day22:91675:0.0173309
D^date20120328:91756:-0.0433285
D^date20131214:91836:0.0637195
B^ino62*M^day19:91931:0.0518634
B^ino97*M^day22:92004:-0.00103235
B^ino107*M^day17:92235:0.0651693
C^sno30*M^day5:92245:0.0330601
C^sno27*K^BlackFridayM2:92370:0.0200443
B^ino37*M^month9:92466:-0.00709009
C^sno23*K^ThanksgivingDay:92483:-0.0729911
B^ino56*M^day6:92681:-0.044493
B^ino94*K^BlackFriday:92759:-0.341171
B^ino47*K^BlackFriday3:92813:0.129364
B^ino4*M^day22:93005:0.00436521
B^ino90*K^BlackFridayM2:93013:0.0414622
D^date20130825:93113:0.0482788
B^ino9*M^day21:93148:-0.0833156
C^sno43*M^month2:93199:0.0350454
C^sno12*M^day14:93405:0.053829
B^ino7*M^day28:93535:0.122887
B^ino71*M^month12:93586:-0.0345948
C^sno45*M^day9:93672:-0.0549214
B^ino41*K^BlackFridayM2:93894:0.269357
D^date20121003:93987:-0.0512424
B^ino83*K^BlackFriday:94223:0.19842
B^ino16*M^day25:94307:-0.162929
C^sno6*M^day1:94342:0.301514
B^ino95*K^BlackFridayM3:94355:0.0811553
B^ino38*M^day25:94492:0.102272
A^wd2*B^ino73:94631:0.0188634
B^ino89*M^day1:94799:-0.133028
B^ino102*M^day13:94826:-0.0263209
D^date20130827:95127:-0.0434129
C^sno16*M^month12:95143:0.0181801
B^ino67*M^day5:95144:-0.0669255
B^ino15*M^day19:95172:-0.0675826
C^sno6*M^day2:95177:0.0278957
B^ino102*M^day16:95186:-0.0189853
A^holwe*C^sno19:95188:-0.0520496
B^ino37*M^month12:95211:0.0082109
A^holwe*B^ino36:95347:0.290933
B^ino78*M^day21:95438:-0.0999329
B^ino39*M^month2:95609:0.0531554
B^ino45*K^BlackFridayM2:95719:0.130259
C^sno17*M^month8:95747:-0.0197718
A^wd3*B^ino27:95771:-0.0771308
A^wd5*B^ino69:95938:0.0249045
B^ino50*M^day7:95996:0.00852489
B^ino86*M^day15:96108:-0.0172453
A^wd3*B^ino15:96341:0.00285769
D^date20140907:96389:0.00902009
C^sno40*M^day14:96424:-0.00586271
B^ino109*M^day29:96618:0.0258126
B^ino70*M^month2:96704:-0.0716269
B^ino12*M^day14:96844:-0.053529
B^ino59*K^BlackFridayM3:96848:0.442596
A^we*C^sno29:96865:-0.00953293
B^ino16*M^day21:96885:-0.159028
B^ino80*M^day27:96929:-0.0624275
B^ino38*M^day21:97034:-0.0883083
C^sno32*M^day19:97191:-0.0398381
A^wd0*C^sno17:97277:0.00919175
B^ino48*K^BlackFriday1:97452:-0.137145
B^ino97*M^day26:97459:-0.218571
B^ino91*M^day6:97524:0.0157812
B^ino28*K^ThanksgivingDay:97711:0.0838463
B^ino5*M^day1:97769:0.226134
B^ino24*M^day21:97950:0.0464647
B^ino5*M^day2:97958:0.133628
B^ino78*M^day25:98008:0.41031
B^ino109*M^day10:98034:-0.00371194
B^ino31*K^BlackFriday2:98047:-0.300982
B^ino8*M^day31:98235:-0.0799134
B^ino99*M^month3:98253:0.0342114
D^date20130415:98434:0.0165706
A^wd4*B^ino61:98506:0.0848804
D^date20130901:98637:-0.00904036
A^wd6*B^ino1:98639:0.0648456
B^ino13*M^day11:98666:0.0156894
A^wd3*C^sno16:98716:-0.0091989
D^date20140318:98766:-0.00205708
D^date20140913:98870:-0.0687659
C^sno7*M^day20:98916:-0.0306816
B^ino93*M^month6:98919:0.0464852
B^ino5*M^month9:98937:-0.0337486
A^holwd*B^ino92:98982:-0.0493765
C^sno15*M^day16:99064:-0.0547602
B^ino80*M^day18:99092:-0.032963
A^wd3*B^ino23:99142:-0.101262
B^ino26*M^month7:99313:-0.00124931
B^ino32*K^BlackFridayM3:99595:-0.280943
B^ino26*M^day29:99612:-0.00776076
C^sno25*M^day31:99648:0.00209308
A^wd6*B^ino110:99795:-0.147255
D^date20121004:99873:-0.00240922
D^date20130605:99907:0.0214694
D^date20131229:100053:-0.0228465
A^wd3*B^ino68:100067:-0.0653648
B^ino18*K^BlackFriday2:100105:0.393974
B^ino104*M^day20:100236:0.00522304
D^date20130917:100247:-0.01087
B^ino111*M^day20:100444:-0.00717926
A^wd5*B^ino80:100582:-0.0446508
A^wd0*C^sno10:100588:-0.0145369
B^ino44*M^day5:100697:0.200586
D^date20120412:100848:-0.0202818
C^sno2*M^day11:100901:0.0393515
B^ino106*M^month8:100938:-0.00127769
A^holwe*B^ino17:100939:0.0444107
B^ino16*M^day3:100941:0.132745
B^ino31*M^day4:101034:0.0241852
D^date20140704:101189:-0.0390723
D^date20130225:101230:0.0620129
B^ino6*K^BlackFriday:101242:0.404384
B^ino9*M^day15:101298:0.0181499
B^ino48*M^month2:101527:-0.01949
B^ino10*K^ThanksgivingDay:101557:0.490699
C^sno17*M^month4:101600:0.021291
D^date20140304:101673:0.0797172
B^ino34*M^day9:101785:-0.113105
B^ino68*K^BlackFriday:101831:-0.0254796
B^ino67*K^BlackFriday3:101886:-0.690951
B^ino67*K^ThanksgivingDay:102019:-0.0474615
A^wd0*C^sno23:102273:0.0656123
B^ino36*M^day29:102320:0.0325723
B^ino105*M^day30:102431:0.0468054
C^sno4*M^day13:102530:0.105987
B^ino108*M^day24:102822:0.188877
C^sno7*K^BlackFriday:102860:-0.0569954
A^holwd*B^ino105:102966:-0.0272255
B^ino35*M^day30:103419:-0.0624983
D^date20121118:103693:-0.0146475
A^we*C^sno6:103716:-0.0727193
A^wd1:103744:-0.0437889
A^wd4*C^sno40:103757:0.00319624
C^sno5*K^BlackFridayM3:103762:0.101047
C^sno30*K^ThanksgivingDay:103806:0.0178952
C^sno16*M^day2:103841:0.0883865
B^ino109*M^day27:103845:0.0937557
B^ino37*M^day2:103917:0.0277405
A^wd3*C^sno30:103964:0.012861
A^wd3*B^ino106:104052:0.0354719
B^ino37*M^day1:104098:0.0905738
B^ino75*M^month5:104123:-0.00534821
B^ino43*M^month10:104126:0.0326574
C^sno16*M^day1:104174:0.0913498
B^ino86*M^day21:104194:0.0186348
B^ino100*M^day28:104197:-0.0423975
A^wd1*B^ino45:104279:-0.0604806
B^ino110*M^day4:104295:0.135257
D^date20120818:104377:0.0256233
A^wd3*B^ino6:104568:-0.0450971
B^ino5*M^month12:104608:0.0201707
B^ino6*M^day20:104658:-0.0978298
A^holwe*B^ino51:104705:0.195973
B^ino8*M^day13:104803:0.0262809
B^ino103*M^month11:104822:0.0275812
B^ino16*M^day15:104987:0.00748825
B^ino99*M^day8:104988:-0.0380414
B^ino59*M^day26:105087:0.00553083
A^holwe*B^ino13:105240:-0.0422902
D^date20130502:105294:-0.00318503
B^ino9*M^day3:105444:0.0405481
B^ino12*M^day9:105489:-0.0445349
B^ino23*M^day18:105580:-0.0603418
A^holwd*B^ino3:105591:-0.214017
B^ino17*M^day12:105635:0.0641353
C^sno29*K^BlackFriday3:105716:0.115936
B^ino42*M^day3:105719:-0.0291541
B^ino66*K^BlackFriday:105745:0.0607133
B^ino86*M^day25:105748:0.0118527
M^day7:105891:0.0221648
A^wd4*B^ino16:106006:0.0160325
B^ino110*M^month3:106024:-0.00214338
B^ino68*M^day20:106095:-0.019393
C^sno33*M^day6:106147:0.0387549
B^ino24*M^day15:106224:0.141778
B^ino85*M^day12:106233:-0.012255
B^ino18*M^day30:106294:0.00251961
B^ino60*K^BlackFridayM2:106306:-0.369048
C^sno29*K^ThanksgivingDay:106377:0.0243716
B^ino18*M^day8:106434:-0.0740268
B^ino87*M^day15:106540:-0.070658
A^holwe*B^ino30:106604:-0.233773
D^date20140720:106654:0.0452299
B^ino12*M^day7:106665:0.0225301
B^ino44*M^month11:106670:-0.014015
B^ino64*M^year2013:106682:-0.0185449
B^ino4*M^month12:106689:-0.114996
D^date20120205:106843:-0.00673604
D^date20140701:106869:0.00766635
B^ino77*M^month4:106917:-0.00969863
A^wd0*B^ino83:107077:-0.0795755
D^date20121224:107103:-0.0105817
D^date20121226:107156:0.021359
B^ino111*M^month7:107211:-0.376577
A^holwe*B^ino73:107368:0.0537786
B^ino97*M^year2014:107428:-0.00150919
B^ino37*M^day26:107440:-0.0553496
B^ino75*K^BlackFriday1:107472:0.648416
C^sno24*M^day21:107537:-0.00665879
B^ino111*M^day29:107558:0.0361495
C^sno30*M^day12:107567:0.152746
B^ino28*M^month10:107616:-0.0202851
B^ino106*M^day25:107791:-0.00691009
C^sno25*M^day30:107839:-0.00304055
B^ino66*M^day10:107867:0.00742936
C^sno31*M^day5:107952:0.00848579
C^sno6*K^BlackFridayM3:107963:0.0887284
B^ino16*M^month4:107973:-0.00622082
A^we*B^ino51:108114:-0.0100651
C^sno25*M^day19:108219:-0.00168443
A^wd2*B^ino36:108220:-0.0297329
B^ino68*M^day18:108399:-0.0412695
B^ino89*K^BlackFridayM3:108402:-0.0739787
A^wd3*B^ino66:108529:-0.0374799
A^wd3*B^ino5:108737:-0.102203
C^sno7*M^month7:108787:0.0123284
C^sno38*M^month12:108889:-0.0121214
C^sno43*M^month5:108895:-0.0109215
C^sno15*M^day4:108941:0.0127218
C^sno9*M^month2:109028:-0.00211835
C^sno45*M^day28:109280:0.0901637
A^wd0*B^ino75:109331:-0.0077405
C^sno23*M^month1:109361:0.021342
B^ino50*M^day14:109593:-0.108662
B^ino55*M^day5:109595:-0.170626
B^ino59*M^day2:109602:-0.149176
A^we*B^ino48:109657:0.0250864
A^wd4*B^ino81:109873:-0.0452974
A^we*C^sno32:109908:0.00364327
B^ino19*K^BlackFriday:110004:0.511273
A^holwe:110086:-0.0713718
C^sno24*M^day25:110087:-0.0111506
B^ino17*K^BlackFriday3:110223:0.192458
C^sno29*M^day12:110296:0.0114529
D^date20131205:110321:0.0596044
A^wd6*B^ino111:110415:0.256144
B^ino32*M^month9:110502:-0.0016737
B^ino85*K^ThanksgivingDay:110504:0.214756
B^ino105*M^day31:110688:-0.00917101
C^sno23*M^month10:110732:-0.00223446
A^we*C^sno11:110757:0.0751896
C^sno13*M^month5:110835:0.0185592
B^ino68*M^day29:111125:-0.0309956
B^ino43*M^day5:111194:0.0233159
A^wd1*B^ino27:111242:-0.110045
D^date20131018:111290:0.0775218
C^sno43*M^day23:111362:-0.0417171
B^ino6*M^day10:111408:0.0705488
C^sno17*M^day15:111422:0.113122
B^ino8*M^day4:111534:-0.0408938
A^wd2*B^ino9:111587:-0.0639293
D^date20120607:111604:0.07672
A^hol*B^ino9:111633:-0.0574296
B^ino102*M^day8:111673:0.0317426
C^sno10*M^day21:111871:-0.062875
B^ino68*M^day10:112013:-0.00173283
A^we*C^sno27:112033:0.0217817
A^we*B^ino58:112084:0.0639529
B^ino102*M^day19:112457:-0.0178015
B^ino2*M^month9:112462:-0.00196791
B^ino1*M^day5:112487:-0.198413
B^ino69*K^BlackFriday:112528:0.350838
B^ino11*M^month3:112571:-0.0127859
A^wd6*B^ino108:112707:0.171439
D^date20131209:112723:0.0711708
B^ino37*M^day22:112743:-0.0140524
B^ino52*M^day1:112892:-0.0656784
C^sno27*M^day6:113012:-0.0295851
A^wd2*B^ino64:113024:-0.0248361
B^ino98*K^BlackFriday3:113080:0.0311139
B^ino99*M^day31:113303:0.175548
D^date20131124:113346:0.0467274
B^ino26*K^BlackFriday:113358:0.176385
D^date20131216:113385:-0.0245714
C^sno34*M^month4:113470:-0.00769281
B^ino52*M^day2:113587:0.0313141
C^sno42*M^day1:113676:0.287292
B^ino82*K^BlackFridayM2:113721:-0.233912
A^wd1*B^ino18:113886:-0.0116861
C^sno25*K^BlackFriday2:113920:-0.0649035
C^sno22*M^day9:113999:0.0704219
B^ino22*M^day10:114062:0.26145
A^wd2*B^ino41:114209:-0.0498171
C^sno32*M^day13:114308:0.00821972
B^ino11*M^day4:114420:0.0303688
C^sno42*M^day2:114499:0.057035
B^ino51*K^BlackFridayM2:114523:-0.237871
B^ino6*M^day22:114967:-0.0757422
B^ino1*M^day3:114971:-0.027828
C^sno43*M^day6:115076:0.0222743
B^ino83*K^BlackFridayM3:115098:0.0410886
C^sno38*M^day11:115197:0.0224128
B^ino15*M^day9:115287:0.168294
B^ino65*M^day31:115309:0.0781736
A^wd1*B^ino54:115407:0.0499442
B^ino101*M^month1:115420:-0.0408156
B^ino81*K^BlackFridayM2:115648:0.103716
B^ino107*M^day24:116182:0.282522
B^ino89*M^day27:116218:-0.0769715
A^wd2*B^ino80:116258:0.0457306
B^ino77*M^month1:116488:-0.35751
D^date20121111:116531:0.0672526
B^ino61*M^day17:116557:-0.0606532
B^ino56*M^month2:116610:-0.0141919
B^ino24*M^month1:116611:-0.149142
A^wd0*C^sno1:116644:-0.0214279
B^ino68*M^day22:116650:-0.00531745
B^ino35*M^day14:116657:0.0556552
D^date20130514:116689:0.0196147
A^wd2*B^ino16:116732:-0.0707352
A^holwe*B^ino56:117085:-0.220465
C^sno40*M^month3:117191:-0.00228357
B^ino20*M^day23:117224:0.0310719
B^ino37*M^day10:117312:0.00722075
B^ino111*M^day26:117326:0.0964372
B^ino5*M^day27:117340:-0.0561917
C^sno39*M^month1:117499:0.00771451
C^sno16*M^month7:117625:-0.017308
B^ino83*K^Else:117660:-0.0093677
A^wd2*C^sno40:117927:-0.0509355
B^ino84*M^month2:118033:-0.0109358
B^ino47*M^month4:118063:-0.00988007
D^date20140320:118071:-0.108965
C^sno19*M^day12:118090:-0.0586693
C^sno5*M^day11:118146:-0.0255024
C^sno26*K^ThanksgivingDay:118210:-0.186385
B^ino37*M^day29:118232:-0.059855
D^date20130922:118242:0.0589023
B^ino41*M^day23:118246:-0.0106072
A^wd4*C^sno29:118295:-0.0597377
D^date20130301:118374:-0.0270903
B^ino14*M^month8:118383:0.0676427
B^ino99*M^day14:118434:-0.0187552
C^sno26*K^BlackFriday3:118463:0.107955
D^date20140813:118479:0.020267
D^date20120426:118895:-0.0229604
B^ino44*M^month4:118957:-0.00198245
B^ino67*M^month8:118975:-0.0744483
C^sno37*M^year2013:119293:-0.00284052
B^ino23*M^day1:119404:0.014318
C^sno2*K^BlackFridayM3:119541:-0.0115335
B^ino69*M^day1:119608:-0.0745223
B^ino20*M^month5:119733:0.0274513
B^ino70*M^day6:119883:0.000444651
B^ino43*M^day15:119920:-0.00259376
B^ino106*K^ThanksgivingDay:119926:0.165883
B^ino38*M^month11:119993:0.0796556
B^ino36*M^day1:120010:0.0413158
C^sno17*M^day5:120084:0.128765
B^ino49*M^day1:120153:0.00533628
A^we*B^ino69:120218:0.00764871
M^day13:120235:0.00162506
B^ino16*M^month11:120262:-0.0605793
C^sno9*K^BlackFridayM2:120265:0.0419226
B^ino42*M^month1:120274:-0.211235
D^date20120424:120418:-0.0728393
B^ino45*M^day23:120519:-0.0123975
B^ino25*M^month10:120608:-0.0164397
B^ino96*M^year2014:120688:-0.368978
B^ino36*M^day2:120709:0.0234632
B^ino29*M^day31:120765:0.0594401
C^sno13*M^day6:120872:0.0739748
B^ino45*M^month6:120879:0.0113008
D^date20121218:120918:0.0656741
B^ino59*M^day20:120941:0.0214543
C^sno16*M^day18:121070:-0.0582445
A^wd5*C^sno29:121145:-0.0835505
B^ino28*M^month4:121200:0.000431061
D^date20121220:121298:-0.0058291
A^wd6*B^ino24:121376:-0.327731
B^ino81*M^day24:121445:-0.0522082
B^ino55*M^day3:121447:-0.0361025
D^date20121031:121478:-0.193467
B^ino6*M^day26:121536:-0.0761836
A^wd0*B^ino14:121649:-0.108533
B^ino94*K^BlackFridayM3:121794:-0.513314
D^date20130706:121822:-0.0809958
B^ino107*K^BlackFridayM2:121971:0.000440598
C^sno11*M^day11:121976:-0.0339267
B^ino68*M^day26:121981:0.00843239
B^ino17*M^day25:121995:0.0290883
C^sno27*M^day17:122090:0.0562911
A^hol*B^ino61:122578:-0.0429895
B^ino90*M^day17:122733:-0.0293062
C^sno24*K^ThanksgivingDay:122750:-0.391
C^sno14*M^day18:122857:0.0762765
C^sno45*M^day30:122879:0.0340557
D^date20130709:123114:0.0323009
C^sno42*M^day10:123118:0.186162
C^sno42*M^month7:123291:0.0359879
B^ino37*M^day20:123298:-0.0619528
C^sno16*M^day20:123374:-0.0498459
B^ino65*M^day30:123410:-0.0188828
A^wd3*B^ino102:123530:0.0072763
C^sno34*M^day5:123594:0.157864
C^sno33*M^month6:123597:-0.0187829
A^wd2*B^ino87:123697:-0.0633821
C^sno28*M^day28:123850:-0.00183868
C^sno4*M^day9:123954:0.0263295
D^date20140226:124245:-0.0482714
A^wd2*C^sno34:124421:-0.00498724
C^sno11*M^day27:124448:-0.00299692
B^ino20*K^BlackFriday1:124638:-0.196652
B^ino35*M^day28:124644:-0.12417
B^ino90*K^BlackFriday1:124739:0.303348
C^sno42*M^day29:124790:0.0442135
A^wd4*B^ino41:124875:-0.0556104
D^date20140111:124917:0.0406506
A^wd6*B^ino103:124985:0.187311
B^ino96*K^BlackFridayM3:125000:0.435773
C^sno21*M^day11:125026:0.0170188
B^ino31*M^day7:125039:0.112708
A^wd3*B^ino85:125290:0.0480471
B^ino68*M^day1:125295:0.0650749
A^wd4*B^ino9:125449:-0.0618877
B^ino68*M^day2:125472:0.0262678
D^date20130911:125619:0.0482929
B^ino26*M^day26:125812:0.000502586
C^sno33*M^day23:125989:-0.042428
B^ino86*K^ThanksgivingDay:126061:0.178406
B^ino71*K^BlackFriday:126067:0.366482
A^wd0*B^ino110:126228:-0.277341
B^ino9*M^day5:126360:0.135939
C^sno30*M^day21:126481:-0.0804856
C^sno24*M^day12:126511:0.100384
D^date20131204:126521:0.190581
B^ino88*M^day8:126733:-0.0575187
A^wd5*C^sno19:126943:0.0317845
B^ino104*M^day1:127116:-0.0357625
B^ino48*K^BlackFridayM2:127162:0.0261397
C^sno25*M^day14:127349:-0.0337765
C^sno3*M^day9:127514:-0.00820255
D^date20121109:127610:0.0487247
A^wd0*C^sno41:127622:-0.00447989
B^ino27*M^day24:127625:0.00372982
C^sno44*M^day17:127806:3.26633e-05
B^ino104*M^day2:127939:-0.00288558
B^ino40*M^day14:128219:-0.0849702
C^sno37*K^BlackFridayM2:128274:-0.0219941
D^date20130628:128802:-0.0227575
B^ino109*K^BlackFridayM3:128813:0.0447066
D^date20130925:128840:-0.00687718
B^ino29*M^day30:128962:-0.159652
C^sno5*M^day27:128986:0.0841532
D^date20120522:129159:-0.0498078
A^wd4*C^sno19:129265:0.0244722
B^ino45*K^BlackFriday1:129521:-0.0302479
B^ino100*K^BlackFriday2:129573:-0.423851
B^ino65*K^BlackFriday2:129581:-0.156866
C^sno38*M^day27:129957:-0.0364528
B^ino50*M^day19:130007:-0.00608277
B^ino19*M^day26:130062:0.0396137
C^sno19*K^ThanksgivingDay:130075:0.0695646
B^ino16*M^day5:130097:0.291084
C^sno31*M^month4:130116:-0.0117872
D^date20131022:130204:-0.00482345
B^ino69*M^day22:130557:0.152967
A^wd1*B^ino38:130660:-0.00842595
B^ino95*M^day29:130772:-0.0391424
B^ino44*M^day3:130853:0.144047
B^ino111*M^day1:130908:-0.403795
D^date20130219:131218:0.0338726
D^date20120527:131227:-0.029649
C^sno17*M^month2:131337:-0.00194645
B^ino103*M^day24:131348:0.0291343
B^ino29*M^day27:131362:0.00266218
C^sno3*M^day1:131416:0.0117705
B^ino83*M^day14:131512:-0.0263455
C^sno5*M^day8:131534:-0.0394199
A^wd3:131595:-0.0454845
D^date20121027:131935:0.0466132
D^date20130125:132022:-0.0593278
B^ino104*M^day9:132046:-0.0463088
B^ino15*M^day26:132103:-0.150076
B^ino4*M^day8:132137:-0.068727
B^ino40*M^month12:132237:0.08248
C^sno21*M^day31:132261:-0.00740552
D^date20140216:132736:-0.0414581
A^wd6*B^ino95:133061:0.0876601
B^ino64*M^month10:133249:-0.0907223
D^date20120918:133257:-0.00970578
A^wd6*B^ino68:133370:0.0332992
C^sno11*K^BlackFriday2:133375:-0.0362234
M^day29:133411:-0.00987649
B^ino96*M^day28:133439:0.24924
B^ino32*K^BlackFriday2:133468:-0.200723
B^ino2*M^day8:133503:0.0299797
A^wd1*C^sno18:133557:0.0149279
D^date20120418:133662:-0.0118504
B^ino67*M^day6:133694:-0.00698447
C^sno35*M^month1:133729:-0.00540686
B^ino62*M^day22:133903:0.0885811
B^ino59*M^month3:133917:0.019768
B^ino18*K^BlackFridayM3:133982:-0.236834
C^sno9*M^day3:134021:-0.00351596
B^ino93*M^day25:134093:0.0403364
B^ino111*M^day9:134174:-0.0158823
A^wd1*B^ino76:134365:0.00649214
C^sno38*M^day30:134469:-0.0149951
A^wd6*B^ino23:134495:0.181754
D^date20130120:134729:-0.00588465
A^wd3*B^ino1:134998:-0.0680087
B^ino54*M^day24:135018:0.156097
B^ino97*K^BlackFriday2:135371:-0.217902
B^ino62*M^day26:135384:-0.00715256
A^we*B^ino86:135405:-0.0486937
D^date20140328:135510:-0.0611
C^sno44*K^BlackFriday3:135520:0.155063
C^sno6*M^day31:135596:-0.0443172
B^ino45*M^day12:135597:-0.0060966
C^sno30*M^day6:135619:0.122705
C^sno41*K^BlackFriday:135642:-0.0846107
B^ino22*M^day9:135726:0.0355625
A^wd1*C^sno42:135863:0.00752211
C^sno22*M^day10:135919:0.0669444
A^we*C^sno39:136033:-0.0545948
B^ino89*M^day31:136037:-0.144264
C^sno22*M^month7:136090:-0.010268
B^ino82*M^day5:136201:-0.147356
C^sno4*M^day2:136255:-0.0244799
B^ino46*M^day26:136434:-0.0566514
B^ino100*M^day27:136442:-0.0271981
D^date20120425:136503:-0.0463877
C^sno22*M^day29:136567:-0.011801
A^holwe*B^ino52:136853:-0.108763
B^ino54*K^BlackFridayM2:136911:-0.301228
B^ino7*M^day18:136981:0.0938649
B^ino12*M^day20:137299:-0.0116472
A^wd6*B^ino106:137325:-0.0608878
B^ino103*K^BlackFridayM2:137393:0.345254
D^date20131210:137467:0.0512211
B^ino84*M^day5:137484:-0.0122359
C^sno33*K^BlackFriday3:137571:0.0592437
B^ino13*M^day14:137624:-0.0780077
A^wd6*C^sno45:137833:-0.0146174
B^ino43*K^BlackFridayM2:137834:0.259964
B^ino34*K^BlackFriday:137843:0.0773976
B^ino49*M^day7:137891:0.0819767
A^wd5*B^ino40:138102:-0.115051
C^sno9*M^day15:138195:0.0261822
M^day18:138329:-0.00403452
A^holwe*B^ino37:138379:-0.000869274
B^ino6*M^day9:138384:0.167552
B^ino5*M^day31:138435:-0.0776677
C^sno36*M^day7:138474:0.104493
A^holwe*B^ino4:138489:-0.191575
C^sno12*K^BlackFriday:138602:-0.00476313
B^ino55*M^day24:138638:-0.0168417
A^wd2*B^ino88:138730:0.0116124
D^date20140930:138735:-0.038291
B^ino8*M^day1:138897:0.387884
D^date20121006:139036:0.0864248
C^sno20*M^day5:139229:0.0737102
B^ino57*M^month9:139283:-0.0246742
B^ino6*M^day7:139304:0.342124
C^sno36*M^day9:139346:0.0667551
C^sno20*M^month1:139396:-0.00753379
D^date20140616:139449:-0.00933123
B^ino83*M^day28:139501:-0.00576949
B^ino45*K^ThanksgivingDay:139516:-0.475127
C^sno5*M^day31:139589:0.0459898
B^ino44*K^BlackFridayM2:139625:0.154052
B^ino76*M^month1:139676:0.00593138
B^ino46*M^day1:139744:0.0737612
B^ino34*M^day10:139833:-0.101658
B^ino106*M^day23:139853:-0.0137994
B^ino95*M^day13:139868:-0.153583
D^date20131023:140011:-0.0225973
B^ino88*M^day11:140097:-0.0224962
D^date20141020:140209:0.032671
A^we*B^ino37:140248:0.0856333
B^ino95*M^day16:140260:0.000766277
C^sno9*M^month4:140301:-0.0126555
B^ino4*M^day31:140450:-0.0321865
A^hol*B^ino39:140525:0.0685728
B^ino27*M^day15:140598:0.0581181
D^date20130102:140665:0.0728197
D^date20131228:140727:0.00472856
B^ino49*M^day9:140827:-0.105028
A^wd6*B^ino5:141016:0.128736
B^ino39*M^day21:141088:0.0299945
W^departF:141101:-0.0184045
A^wd6*B^ino78:141104:0.0471218
B^ino53*M^day18:141189:-0.000498056
B^ino36*M^day9:141192:-0.0222034
D^date20140508:141245:-0.101753
C^sno28*M^month9:141328:-0.0149846
B^ino28*K^BlackFridayM2:141492:0.0797987
C^sno24*M^day23:141637:-0.0244408
B^ino17*M^day6:141647:-0.0345633
A^we*B^ino52:141766:0.0179291
A^wd6*B^ino66:141800:0.0235887
A^wd5*B^ino89:141867:-0.0666625
B^ino102*K^Else:141987:0.000855684
C^sno22*K^BlackFriday:141989:-0.380098
B^ino85*M^day6:142101:-0.00968981
B^ino89*K^BlackFriday2:142117:-0.115068
C^sno33*M^day12:142159:-0.0200794
B^ino8*M^day26:142211:-0.221036
D^date20130207:142321:0.0813482
B^ino77*M^month2:142412:-0.135862
B^ino71*M^month3:142507:0.00806141
B^ino56*M^month1:142534:0.0782328
C^sno38*M^day31:142650:-0.0244915
B^ino7*M^day20:142869:-0.0102344
C^sno10*M^day17:143027:0.0090003
B^ino105*M^month9:143066:0.0255625
D^date20130622:143183:-0.00814104
C^sno3*M^day22:143261:0.00199652
B^ino50*M^year2012:143373:0.0191517
B^ino111*M^day7:143526:0.467358
C^sno40*M^day10:143701:-0.00431085
C^sno6*M^day30:143827:-0.0706947
B^ino37*M^month3:144082:-0.00861144
C^sno24*M^month5:144152:-0.00291586
B^ino89*M^day30:144154:-0.0842068
D^date20120330:144320:-0.0151711
B^ino12*M^day29:144425:-0.0054729
C^sno43*M^day25:144448:-0.0486856
A^wd4*C^sno9:144526:0.0173092
B^ino73*K^BlackFridayM2:144572:-0.15257
B^ino40*K^BlackFridayM3:144633:-0.205082
C^sno26*M^month6:144657:0.00788331
C^sno35*M^day5:144696:-0.081445
K^BlackFriday:145137:-0.231348
B^ino109*M^day14:145167:0.0662367
B^ino92*M^day24:145204:-0.071789
A^wd3*B^ino28:145427:-0.0444958
D^date20120229:145756:-0.0126054
D^date20120130:145776:-0.0511441
C^sno32*M^day1:145782:-0.0104594
C^sno32*M^day2:145977:0.0149119
B^ino91*M^month1:145979:0.032428
B^ino57*M^month12:146122:-0.0138955
C^sno37*M^day15:146184:0.0130284
B^ino37*M^day4:146333:0.0525229
C^sno23*K^BlackFridayM2:146520:0.108728
B^ino5*M^day30:146620:-0.066555
C^sno21*K^BlackFriday2:146661:0.239696
A^wd4*B^ino89:146693:0.00251818
B^ino90*K^BlackFriday3:146739:-0.400597
B^ino90*K^ThanksgivingDay:147022:-0.0906518
B^ino80*M^day9:147030:-0.0263405
B^ino43*M^year2013:147077:-0.00582743
B^ino42*M^month2:147094:0.0716147
B^ino52*M^day16:147126:0.032073
D^date20120304:147159:-0.00398588
B^ino99*M^month12:147188:-0.266966
B^ino20*K^ThanksgivingDay:147411:0.41585
D^date20120318:147544:0.0278597
B^ino102*M^day27:148013:0.0138206
B^ino25*M^day24:148049:-0.0352967
B^ino8*M^day10:148083:0.17203
B^ino42*K^BlackFridayM2:148155:0.404454
B^ino6*M^day4:148205:0.220106
B^ino31*K^BlackFriday:148285:-0.0830727
C^sno39*M^day24:148535:0.041755
A^wd3*B^ino83:148635:-0.0862088
D^date20120326:148734:-0.0473988
B^ino46*K^BlackFriday:148808:0.795681
A^we*C^sno37:148961:0.0698209
B^ino65*M^month12:149006:-0.0121176
B^ino15*M^day20:149013:-0.0505373
C^sno29*K^BlackFriday1:149124:-0.00206089
B^ino50*M^month9:149142:-0.000524759
C^sno2*M^day30:149149:-0.0133462
A^wd4*C^sno24:149274:0.0508096
B^ino71*M^day7:149281:-0.0635321
D^date20120601:149884:0.0649846
B^ino5*M^day28:149923:-0.0372283
D^date20131120:150017:-0.0235443
D^date20140531:150082:0.0150113
B^ino64*M^day15:150095:0.340914
B^ino79*M^day27:150125:-0.272626
C^sno15*M^day18:150194:-0.0403948
B^ino80*M^day13:150246:0.0897202
B^ino80*M^day16:150366:-0.0296617
B^ino6*M^month3:150434:-0.00648069
D^date20130801:150815:0.0316243
A^wd1*B^ino50:150853:0.0108581
B^ino16*M^day24:150948:-0.186907
B^ino13*M^day30:150994:-0.104799
A^wd0*B^ino5:151071:0.0635207
A^holwe*B^ino49:151154:0.0450451
B^ino85*M^day17:151179:-0.0179672
B^ino90*M^day25:151351:-0.0347304
C^sno42*M^day9:151374:-0.0158587
C^sno3*M^day18:151384:0.00723958
B^ino24*K^BlackFridayM2:151786:-0.437044
D^date20130104:151822:0.011436
B^ino58*M^month11:151866:-0.123883
B^ino92*M^month2:152252:-0.020659
A^wd6*B^ino2:152309:0.0410697
B^ino36*M^day13:152376:-0.0156796
C^sno34*M^day24:152415:-0.0117824
B^ino18*M^day11:152462:-0.00580645
A^hol*C^sno7:152480:0.0145364
B^ino29*M^month12:152542:-0.0148916
C^sno25*M^day27:152543:-0.00803876
C^sno9*M^month11:152590:-0.017252
B^ino23*M^day16:152614:-0.0684886
A^wd3*B^ino24:152633:-0.0652664
C^sno36*M^day13:152802:0.0878255
A^wd5*C^sno14:152809:0.0384414
A^wd1*C^sno21:152914:0.00182605
B^ino38*K^BlackFridayM2:152958:-0.179914
B^ino10*K^BlackFriday1:153016:-0.146678
A^wd0*B^ino79:153236:0.0275118
C^sno12*M^day22:153351:-0.0099256
B^ino26*M^day16:153644:-0.0195754
C^sno16*M^day7:153876:0.0293729
B^ino37*M^day7:153944:0.0288415
B^ino72*K^BlackFridayM2:153953:0.170968
D^date20140725:154190:0.00710487
B^ino7*M^day2:154202:-0.0948286
C^sno28*M^day11:154221:0.164969
A^wd2*B^ino11:154331:0.0148387
B^ino25*K^BlackFridayM2:154612:0.462057
B^ino9*M^day24:154637:-0.0768964
D^date20121209:154668:0.0896711
B^ino59*M^day9:154671:-0.0990322
B^ino50*M^month12:154703:0.0153298
B^ino96*M^day31:154719:-0.098033
D^date20120505:154738:-0.0517066
B^ino97*M^day14:154814:0.254076
C^sno37*M^day5:154914:-0.0651314
C^sno3*M^day10:155066:0.175833
A^holwe*B^ino44:155083:-0.0663443
C^sno13*K^BlackFriday3:155624:-0.133051
C^sno22*M^day22:155848:-0.00242066
A^wd1*C^sno12:155929:-0.0198088
C^sno33*M^day21:156017:0.0065043
D^date20130227:156050:-0.108213
A^we*C^sno28:156226:-0.0295541
A^we*B^ino44:156312:0.0300794
D^date20121129:156348:-0.0280144
B^ino109*M^day30:156485:-0.0251703
A^we*B^ino67:156527:0.131921
B^ino1*M^month2:156538:-0.0215824
B^ino29*K^BlackFridayM3:156586:0.0688152
B^ino109*M^day8:156593:-0.0921941
B^ino96*K^BlackFriday2:156703:-0.69097
D^date20140717:156768:0.0508165
C^sno17*M^day24:156801:-0.0702159
A^holwd*B^ino93:156824:0.0347164
D^date20130202:156884:0.0345564
C^sno32*M^month7:156897:-0.0219812
B^ino35*M^day27:156955:-0.114298
A^wd3*C^sno2:157082:-0.00835299
C^sno16*M^day9:157100:-0.0116942
A^wd2*B^ino47:157118:-0.175349
B^ino41*M^month8:157153:-0.00501847
C^sno3*K^BlackFriday:157168:-0.00150609
B^ino14*M^day23:157288:-0.0377622
B^ino22*M^day13:157342:-0.237158
C^sno2*M^day31:157410:-0.147789
B^ino22*M^day16:157478:-0.202798
B^ino89*M^day14:157520:-0.108092
A^holwd*B^ino8:157615:-0.019002
D^date20120810:157697:0.0103958
B^ino6*M^day13:157728:0.158847
D^date20140627:157741:-0.0084908
B^ino5*M^day14:157942:-0.00711322
B^ino80*M^month3:158052:-0.0181873
C^sno20*M^day3:158113:0.0238912
B^ino18*M^day27:158166:-0.0523393
D^date20120623:158186:0.0562699
C^sno33*M^day25:158567:-0.0311048
B^ino7*M^day26:158727:-0.0132587
B^ino50*K^BlackFridayM3:158779:-0.0489721
A^wd6*B^ino102:158867:-0.0791886
D^date20121216:158901:0.0828452
A^wd2*C^sno9:159076:-0.00286722
C^sno40*M^day1:159159:-0.00464869
C^sno13*M^day12:159172:0.0824125
A^wd1*B^ino93:159215:-0.0386035
B^ino87*K^BlackFridayM2:159286:-0.0456128
A^wd1*B^ino8:159448:0.0351036
C^sno40*M^day2:159480:-0.00224972
B^ino84*M^day3:159600:-0.0326631
B^ino46*M^day18:159712:-0.224781
B^ino79*M^day11:159797:0.103092
B^ino36*M^month3:159930:0.00653458
B^ino49*M^month3:160041:-0.133978
B^ino51*M^day15:160065:-0.12238
B^ino74*M^month2:160088:-0.198889
B^ino48*M^month11:160125:0.0631151
C^sno31*M^month2:160173:1.43051e-06
C^sno7*M^day13:160406:0.043463
D^date20131111:160583:0.030237
C^sno15*M^day20:160690:-0.0613704
B^ino10*M^month6:160870:-0.032254
C^sno43*M^day12:160872:0.0936029
B^ino17*K^BlackFriday1:161023:-0.399238
A^wd3*C^sno31:161143:-0.00531483
B^ino64*M^month4:161169:-0.142748
D^date20130110:161211:0.0147426
D^date20130526:161264:-0.0999143
B^ino100*K^BlackFridayM3:161394:-0.272077
B^ino65*K^BlackFridayM3:161402:-0.18076
B^ino85*K^BlackFriday1:161445:0.00664544
A^holwe*C^sno3:161513:-0.0373883
B^ino87*M^day24:161683:0.0242817
C^sno1*M^day7:161810:0.00276017
B^ino61*M^month8:161874:0.0434511
C^sno38*M^day28:161882:-0.00333691
C^sno19*M^day6:161958:0.00279784
B^ino111*M^day13:161966:0.0714931
B^ino67*M^day23:161976:-0.0412664
B^ino76*M^day15:162031:-0.0325813
B^ino111*M^day16:162070:0.124472
C^sno30*M^month5:162072:-0.0430331
B^ino62*M^day10:162088:-0.12127
B^ino75*K^BlackFriday3:162208:0.495679
B^ino31*M^month7:162306:-0.0433469
C^sno12*M^day2:162445:-0.0440617
A^holwe*C^sno37:162482:-0.00896764
B^ino75*K^ThanksgivingDay:162525:-0.185001
A^wd4*B^ino70:162546:0.0235367
A^wd4*B^ino39:162549:-0.0354755
B^ino109*K^BlackFriday2:162682:-0.124705
B^ino96*M^day30:162848:-0.193866
B^ino14*M^month5:162869:0.0686679
B^ino46*M^month7:162935:-0.0149477
M^day22:162972:-0.0319736
B^ino96*M^day8:163028:-0.240441
D^date20130127:163103:0.00278091
B^ino97*M^day28:163307:0.0191822
C^sno9*M^day5:163321:-0.05004
C^sno29*M^day17:163498:0.0237823
B^ino62*M^day29:163504:-0.0375614
B^ino45*M^month8:163520:0.00244117
B^ino15*M^day18:163605:0.0252242
D^date20120131:163635:-0.0499549
A^wd1*B^ino83:163850:-0.0954769
B^ino22*M^day31:163910:-0.126292
B^ino88*M^day22:163945:-0.0199189
B^ino73*M^day17:163972:-0.0379391
B^ino99*M^day29:164039:0.0375855
C^sno9*K^ThanksgivingDay:164050:-0.358744
C^sno2*M^day16:164226:-0.0548513
C^sno31*K^BlackFriday1:164246:-0.0546639
A^wd1*B^ino62:164289:0.0464692
B^ino44*M^day23:164425:-0.0129278
D^date20120312:164499:-0.0152304
B^ino102*M^day20:164504:-0.0192366
D^date20130607:164568:0.0177221
D^date20131001:164653:-0.0247269
C^sno10*M^day24:164654:-0.0716279
C^sno6*M^day9:164804:-0.0173941
C^sno38*M^day7:164842:-0.0169125
C^sno16*M^day14:164849:0.0342522
B^ino101*M^day6:164883:-0.0899117
B^ino45*M^month4:164899:-0.00428915
C^sno23*M^month5:165157:-0.0400798
B^ino40*K^BlackFriday:165228:-0.102717
B^ino16*M^day6:165287:0.194918
B^ino58*K^ThanksgivingDay:165350:0.230675
B^ino58*K^BlackFriday3:165531:-0.140732
B^ino15*M^day27:165536:-0.0387444
B^ino26*K^BlackFriday2:165644:0.451822
C^sno43*M^month1:165707:0.0124621
A^holwe*B^ino40:165757:-0.0641646
B^ino93*M^day5:165791:-0.108887
B^ino75*M^day5:165878:-0.103205
B^ino39*M^month11:166035:0.0327394
B^ino19*M^day8:166077:-0.0301178
B^ino107*K^ThanksgivingDay:166248:0.120159
A^we*B^ino89:166259:-0.0282154
B^ino35*M^day29:166356:0.0221803
B^ino107*K^BlackFriday3:166421:0.476353
C^sno28*M^month7:166423:0.00208759
B^ino105*M^day29:166448:0.0341282
C^sno36*K^BlackFriday2:166522:-0.1339
A^wd2*C^sno36:166542:0.0186005
B^ino79*M^day20:166616:0.0252099
C^sno41*M^month9:166626:-0.0052259
D^date20130111:166659:-0.00216746
B^ino78*M^day6:166684:-0.0980828
C^sno28*M^day10:166754:0.233368
B^ino13*M^day13:166773:0.0788157
B^ino19*M^day19:166861:0.0311649
B^ino44*M^month6:167073:0.0126491
C^sno28*M^day29:167162:-0.0827887
B^ino65*M^day22:167298:0.0865386
B^ino36*K^BlackFriday2:167328:0.00623322
D^date20130424:167502:-0.037667
A^wd2*B^ino67:167667:-0.0291567
A^wd2*B^ino44:167684:-0.0643973
B^ino27*M^day12:167782:0.0267074
B^ino64*M^month8:167794:0.0118201
B^ino21*M^month8:167818:0.00363135
C^sno5*M^day7:167829:-0.0633669
B^ino80*M^day19:167877:0.0395424
A^wd2*C^sno28:167902:0.0121543
B^ino19*K^BlackFriday2:168054:-0.320507
A^wd1*B^ino24:168104:0.123405
A^wd0*B^ino27:168133:0.0597615
B^ino57*M^day18:168323:-0.0929224
C^sno23*M^month6:168336:0.0109186
B^ino104*M^day31:168358:-0.0373802
B^ino28*M^month5:168393:-0.0576568
C^sno36*M^day30:168517:-0.0456614
B^ino82*M^day21:168525:-0.0663044
B^ino62*M^day27:168575:0.0297878
B^ino83*M^day13:168789:0.0117559
B^ino8*M^day11:168828:0.126253
A^wd6*B^ino104:168895:-0.0942736
C^sno24*M^day24:168896:-0.0160117
B^ino23*M^day8:168909:-0.0579224
B^ino9*M^day6:168974:0.128983
D^date20140719:169034:-0.00153375
B^ino80*K^BlackFriday2:169086:-0.110651
B^ino103*K^BlackFriday1:169127:-0.0392575
B^ino44*M^day17:169297:-0.0308032
B^ino81*K^BlackFriday3:169382:-0.337198
B^ino46*M^day27:169557:-0.120225
B^ino40*M^day20:169668:0.0188954
B^ino81*K^ThanksgivingDay:169691:-0.343428
B^ino8*M^year2012:169882:-0.0195508
A^wd4*B^ino4:169948:0.020328
B^ino82*M^day25:170075:0.0752175
B^ino76*M^day21:170113:-0.0294738
B^ino66*M^day31:170131:0.0668018
D^date20130512:170143:-0.018527
C^sno26*K^BlackFridayM2:170201:-0.0746028
C^sno44*M^day3:170314:-0.0359561
B^ino79*K^BlackFriday:170352:-0.0824664
D^date20120619:170372:-0.0539045
D^date20120327:170510:-0.00626636
B^ino92*M^day17:170665:0.00386095
B^ino51*M^day25:170809:-0.0687673
A^hol*B^ino49:170831:0.0593424
B^ino34*M^month12:170898:0.0155556
B^ino88*M^day26:170942:-0.0303082
A^wd2*B^ino49:171197:0.0419235
C^sno43*M^month10:171254:-0.0209954
D^date20130406:171431:-0.0267684
A^wd4*B^ino52:171440:-0.0664425
B^ino11*M^day11:171558:0.0629189
D^date20120915:171573:0.0154023
B^ino39*M^month1:171581:-0.0265644
A^wd0*B^ino15:171659:-0.016628
A^wd0*B^ino18:171665:-0.109006
B^ino84*M^day21:171848:-0.0199196
B^ino105*M^day18:171850:-0.0284181
B^ino26*M^day8:171975:-0.00479817
B^ino56*M^day25:171981:0.0132425
C^sno41*K^BlackFridayM3:172111:0.0291727
B^ino22*M^day8:172237:-0.195346
B^ino39*M^day5:172388:-0.22103
A^wd2:172399:-0.0538285
C^sno16*M^day28:172708:0.0431056
B^ino37*M^day28:172776:-0.0279353
C^sno1*M^day14:172791:-0.0348957
B^ino43*M^month5:172823:-0.00539494
D^date20130929:172831:0.0116932
B^ino11*M^day27:173182:-0.0232816
A^wd4*B^ino86:173211:0.0226073
B^ino28*K^BlackFriday1:173218:0.296529
B^ino90*M^day15:173391:0.0269372
B^ino48*K^ThanksgivingDay:173473:-0.314201
B^ino105*M^day20:173642:-0.0188079
D^date20121002:173660:-0.0297165
B^ino91*M^month8:173685:0.00410318
B^ino108*M^day21:173687:0.00208616
B^ino48*K^BlackFriday3:173788:0.0061996
B^ino68*M^day30:174138:-0.0241797
D^date20130210:174181:-0.0112057
A^wd2*C^sno37:174205:-0.00179386
B^ino13*M^month3:174327:0.0185153
C^sno42*M^day14:174355:0.0221131
B^ino8*M^day27:174372:-0.0872302
D^date20130626:174410:-0.0531642
B^ino18*M^day20:174435:-0.0246382
A^wd3*B^ino93:174462:0.0990124
B^ino64*M^day21:174625:-0.143414
D^date20130228:174650:-0.0345566
A^wd3*B^ino12:174687:0.0339639
C^sno25*M^day18:174698:-0.024549
B^ino21*M^day21:174809:0.0427811
C^sno2*M^day4:174839:0.00360274
B^ino1*M^day17:174959:0.000469208
B^ino45*M^day3:175019:0.0643396
B^ino108*M^day25:175201:0.0333869
C^sno17*M^day6:175234:0.158373
B^ino99*M^day20:175293:-0.140866
B^ino6*M^day19:175363:-0.12183
M^month9:175561:-0.00715351
B^ino74*M^day23:175701:0.0993452
B^ino93*M^month11:175720:-0.0253551
B^ino6*M^day8:175731:0.0117724
C^sno31*M^day23:175776:-0.030792
B^ino44:175801:-0.00387049
A^wd1*C^sno13:176116:0.00235057
B^ino68*K^BlackFriday2:176133:-0.0300493
C^sno18*M^month3:176134:-0.0059545
C^sno23*K^BlackFriday1:176206:-0.153434
B^ino56*M^month8:176264:0.0302911
A^wd5*B^ino10:176365:-0.0309916
A^wd1*C^sno31:176614:-0.015749
B^ino5*M^day7:176659:0.0528612
C^sno28*K^BlackFriday:176936:0.327353
B^ino23*M^day31:176966:-0.00468135
C^sno35*M^day21:177020:0.00986981
B^ino74*M^month5:177160:-0.000346899
A^wd2*B^ino98:177273:0.0128288
B^ino20*M^day3:177284:0.000488758
A^wd6*B^ino38:177388:0.0211546
B^ino29*M^day2:177624:0.0494406
B^ino35*K^BlackFriday:177670:0.00858903
C^sno27*M^day3:177822:-0.0743067
C^sno3*M^day27:177901:-0.05164
M^month12:177936:0.0111523
A^wd6*B^ino21:177965:-0.0822811
A^holwe*B^ino47:178033:0.147193
B^ino43*M^month6:178082:0.0114355
B^ino66*M^day8:178200:-0.0101414
A^we*B^ino40:178222:-0.00758672
C^sno40*K^BlackFridayM3:178314:-0.267387
B^ino73*K^BlackFriday1:178346:-0.196589
A^wd0*B^ino105:178446:-0.0167265
D^date20121128:178456:-0.0210912
C^sno18*M^day4:178505:0.0258176
B^ino86*K^BlackFridayM2:178550:-0.0340283
B^ino83*M^day4:178584:-0.0137253
D^date20131115:178712:-0.0139046
B^ino84*M^month8:178715:-0.00279427
B^ino50*M^day2:178761:-0.0423548
B^ino12*K^BlackFridayM3:178798:-0.212499
B^ino96*M^day13:178823:-0.219592
D^date20140406:178840:0.0277035
B^ino40*M^day29:178878:0.0297101
B^ino18*K^BlackFriday:178891:-0.168914
B^ino96*M^day16:179007:-0.237808
B^ino102*M^day18:179096:-0.0681171
B^ino2*M^day9:179100:-0.0534327
B^ino45*M^day15:179197:-0.00165153
A^wd0*C^sno8:179235:0.00216889
B^ino7*M^month12:179292:-0.00475264
B^ino53*K^BlackFridayM3:179384:-0.272196
B^ino27*K^BlackFriday3:179530:0.370565
B^ino55*M^month5:179542:-0.0514021
A^wd3*B^ino25:179923:-0.00961351
C^sno6*M^day7:180092:0.0223601
B^ino33*K^BlackFriday3:180331:-0.308393
B^ino62*M^month12:180355:-0.0314775
C^sno27*M^day5:180450:-0.0486703
A^wd5*C^sno28:180506:-0.0688579
D^date20120718:180659:-0.0104105
D^date20131104:181004:0.000646353
B^ino90*M^day5:181093:-0.0293479
C^sno22*M^day11:181216:-0.00505757
B^ino87*M^month6:181246:-0.00299239
A^wd5*C^sno36:181322:-0.0453322
C^sno17*M^month5:181337:-0.00369477
B^ino95*M^day31:181380:-0.0894275
B^ino110*M^month9:181704:-0.156998
C^sno45*M^day29:181712:0.0263722
A^wd1*B^ino46:181955:0.0041008
B^ino11*K^BlackFridayM3:182006:0.20635
B^ino54*M^day6:182121:0.00138021
B^ino23*M^day14:182131:-0.0200934
D^date20120707:182136:-0.0076313
C^sno13*M^day15:182164:0.0684247
C^sno35*K^ThanksgivingDay:182291:-0.380351
C^sno21*M^day4:182448:-0.0371125
A^wd3*B^ino96:182517:0.0259874
B^ino60*K^BlackFriday3:182564:-0.354753
A^hol*B^ino4:182724:-0.000519037
B^ino60*K^ThanksgivingDay:182873:0.356627
C^sno38*M^day16:182874:-0.01879
C^sno35*K^BlackFriday3:183150:-0.10039
B^ino8*K^BlackFridayM3:183212:-0.12665
A^wd4*B^ino43:183231:0.0240786
A^holwe*C^sno24:183359:0.00454617
B^ino50*M^day20:183814:-0.0324414
A^wd2*B^ino37:183876:-0.0965672
B^ino97*M^day13:183891:0.0597191
C^sno43*M^day3:183918:0.104462
B^ino42*K^BlackFriday1:183981:0.286921
B^ino27*M^day25:184142:0.0183616
A^wd1*B^ino110:184155:-0.0919795
D^date20140305:184322:0.047497
C^sno14*M^day8:184392:-0.0210805
C^sno44*M^month1:184431:0.0236146
A^wd1*C^sno41:184521:-0.00979114
B^ino5*M^day4:184534:0.000988245
C^sno17*M^month6:184556:0.0202162
B^ino105*M^day1:184650:-0.00285506
C^sno15*K^BlackFridayM3:184719:-0.0556011
B^ino21*K^ThanksgivingDay:184758:0.323266
B^ino29*K^BlackFriday:184895:0.660011
D^date20130923:185077:-0.0570972
C^sno29*M^day24:185143:-0.0144346
A^wd4*C^sno36:185188:-0.0703988
C^sno20*M^day12:185255:0.00883269
D^date20140412:185415:-0.0085876
B^ino37*M^day19:185459:-0.00188899
B^ino40*M^day26:185558:-0.0730009
C^sno6*M^month3:185590:0.00779128
A^wd4*C^sno28:185908:-0.0986564
A^wd4*B^ino44:186094:-0.0149922
B^ino39*M^day3:186136:-0.0138016
C^sno28*M^day1:186240:0.210019
C^sno16*M^day30:186299:-0.0312788
C^sno11*M^day16:186335:0.00275254
B^ino37*M^day30:186359:-0.102726
B^ino16*K^BlackFriday1:186391:-0.0261059
D^date20121211:186461:0.00727224
C^sno33*M^month1:186476:-0.00454664
D^date20140329:186672:-0.0402122
B^ino38*K^BlackFriday1:186728:0.228077
D^date20120221:186761:-0.048789
B^ino5*M^month3:186777:-0.0449152
B^ino88*M^day20:186796:-0.0696888
B^ino10*K^BlackFridayM2:186798:0.734425
C^sno30*M^day24:186816:-0.0321169
D^date20120422:186909:0.0119891
B^ino62*M^month9:186970:-0.0348828
A^wd0*B^ino42:187036:0.03304
B^ino102*M^day22:187229:-0.0323551
B^ino70*M^day3:187297:-0.0188003
D^date20120513:187381:-0.0125849
B^ino19*M^day14:187395:0.0233786
A^wd0*B^ino38:187435:0.0493045
C^sno32*M^month12:187455:0.00675917
A^wd5*B^ino43:187537:0.0893087
B^ino74*M^day6:187603:-0.0924764
B^ino108*K^ThanksgivingDay:187672:-0.315509
B^ino50*K^BlackFriday:187822:0.19657
B^ino45*M^day5:187863:0.0557237
A^wd6*B^ino45:187871:0.0878289
C^sno17*M^day23:187908:-0.0710809
M^day11:188340:0.0402236
B^ino64*M^day12:188447:0.150464
B^ino16*M^day17:188473:-0.0760076
C^sno40*M^day11:188506:-0.0174377
B^ino36*M^day28:188544:0.0195563
B^ino21*M^day12:188647:0.0408461
B^ino8*M^month9:188673:-0.0518188
C^sno20*K^BlackFriday3:188811:0.0129404
B^ino42*M^day23:188827:0.100358
B^ino87*K^BlackFriday1:188960:-0.0927629
C^sno20*K^ThanksgivingDay:189174:0.0817208
A^wd3*B^ino71:189415:-0.00600624
B^ino61*M^month1:189468:0.0033617
B^ino84*K^ThanksgivingDay:189479:0.0963051
C^sno39*M^month5:189679:-0.0349324
B^ino104*M^day14:189843:0.0296907
A^wd1*C^sno1:189931:-0.0216198
M^day27:189932:-0.00624466
D^date20140903:189975:0.0690396
D^date20131103:190081:0.0327277
B^ino9*M^day23:190088:-0.0714235
C^sno10*M^month2:190118:0.0162694
C^sno25*M^day2:190245:0.00217533
C^sno33*M^day5:190261:0.20919
B^ino69*M^day28:190322:0.087234
D^date20140301:190530:0.0685391
B^ino24*M^month5:190871:-0.0262058
B^ino111*M^day14:191043:0.34341
B^ino82*K^BlackFriday3:191071:0.461535
A^wd5*C^sno3:191202:0.0153053
B^ino18*M^day26:191345:0.0153198
D^date20131024:191478:-0.0116003
B^ino11*M^month9:191579:0.0185831
D^date20130220:191581:0.0644128
B^ino2*M^month3:191662:0.00345182
B^ino65*M^day18:191815:0.0437183
B^ino16*M^month5:191868:-0.0202236
B^ino7*M^day27:192160:0.0168755
B^ino59*M^day8:192204:-0.0040164
B^ino41*M^month11:192257:0.00557113
B^ino25*M^day17:192460:0.00662708
C^sno39*M^month6:192602:0.037673
B^ino44*M^day6:192719:0.0563464
D^date20130603:192731:0.0320287
B^ino9*M^day17:192912:-0.0845349
A^wd4*B^ino84:192973:0.0242209
B^ino88*M^day10:193102:0.125598
B^ino31*K^BlackFridayM3:193192:-0.243343
B^ino34*M^day11:193334:-0.155545
B^ino24*M^day23:193482:0.00690007
B^ino22*M^day14:193651:-0.246594
B^ino46*K^BlackFridayM3:193757:0.787457
B^ino99*M^day22:193912:0.0450909
B^ino102*M^day1:193944:-0.0613232
C^sno11*M^month3:194021:-0.0173912
B^ino59*K^BlackFriday2:194055:-0.345573
A^wd0*B^ino107:194164:-0.0575893
B^ino98*M^day24:194171:0.0706596
B^ino102*M^day2:194263:-0.0668147
B^ino16*M^day23:194337:-0.1854
B^ino37*M^day31:194440:-0.0754316
C^sno8*M^day1:194461:-0.0604644
A^wd6*B^ino27:194562:0.0582967
B^ino91*K^ThanksgivingDay:194633:0.649875
C^sno13*M^month4:194634:-0.0240676
A^wd3*B^ino97:194681:0.0447068
B^ino101*M^month6:194685:-0.0264885
B^ino17*K^BlackFridayM2:194793:-0.264192
B^ino45*M^month10:194867:-0.013186
C^sno35*M^day12:194882:-0.0304391
D^date20120526:194911:-0.0265012
B^ino16*M^month6:195017:0.00689554
B^ino11*M^year2014:195022:-0.00570869
D^date20130209:195189:-0.0591333
B^ino85*K^BlackFridayM2:195251:-0.00522494
B^ino60*M^day12:195336:-0.140976
B^ino91*K^BlackFriday3:195380:0.401795
A^wd0*B^ino104:195448:-0.0112252
D^date20121005:195450:0.00714803
B^ino5*M^day16:195491:-0.00748348
C^sno9*M^day21:195517:0.0024116
B^ino42*M^month5:195526:-0.0346606
B^ino35*M^day22:195691:0.0477929
D^date20130720:195732:-0.00343418
B^ino95*K^BlackFriday2:195780:0.139284
B^ino9*M^month5:195797:-0.0489066
B^ino24*M^month6:195874:-0.0428879
B^ino19*M^day28:195926:-0.0932064
A^wd2*B^ino86:195953:0.0345354
B^ino100*M^month7:196312:-0.00763202
D^date20120726:196453:0.00304437
A^wd1*C^sno15:196489:-0.00722623
B^ino105*M^day22:196495:0.111817
B^ino61*M^month10:196513:-0.183455
B^ino24*M^day22:196644:0.25796
B^ino43*K^BlackFriday:196809:-0.151508
B^ino88*M^day6:196865:0.0216479
D^date20140608:197001:0.0827665
C^sno11*M^day21:197098:0.0706198
B^ino103*K^BlackFriday:197138:-0.29144
B^ino57*M^day23:197288:-0.000963211
C^sno17*M^day1:197423:0.0489986
B^ino44*M^day10:197504:0.112464
B^ino58*M^day4:197577:-0.0705595
B^ino44*M^day29:197656:-0.0332093
B^ino16*M^day22:197839:-0.170786
B^ino69*M^day5:197891:0.0333173
C^sno33*M^day28:197956:-0.0291133
C^sno15*M^month2:198292:-0.0276132
C^sno1*M^day15:198649:-0.0269446
D^date20120501:198652:0.0544171
D^date20140303:198709:0.0209532
B^ino99*M^month6:198782:-0.0483124
B^ino75*K^BlackFriday2:198823:-0.00616384
B^ino93*K^BlackFriday2:198862:-0.178846
B^ino12*M^day24:198909:0.0496831
B^ino109*K^ThanksgivingDay:198912:0.342018
B^ino48*M^day13:198979:-0.0380266
D^date20131107:199113:-0.0275218
C^sno30*M^day27:199131:-0.010669
B^ino109*K^BlackFriday3:199293:0.294428
D^date20121223:199314:-0.00597596
B^ino17*M^day11:199439:-0.00402117
B^ino92*M^day29:199648:-0.0474036
A^wd5*B^ino24:199697:0.0753284
B^ino105*M^day23:199777:-0.0117228
B^ino54*K^BlackFriday:199788:0.0329134
A^holwe*B^ino76:199791:0.133246
B^ino14*M^day27:199926:-0.120753
C^sno44*M^day28:200007:-0.0317693
B^ino28*M^day29:200133:-0.00429344
B^ino51*M^day7:200362:0.0129554
B^ino9*M^day26:200369:-0.133556
C^sno43*M^day31:200451:-0.0105524
B^ino107*M^day4:200519:0.102901
B^ino79*K^BlackFriday1:200645:-0.148471
B^ino93*M^day8:200709:0.030303
C^sno5*M^day21:200720:0.00410271
C^sno35*M^day9:200769:-0.123654
D^date20120423:200774:-0.0116282
B^ino75*M^day30:200856:-0.0616369
C^sno21*M^month8:200867:0.000595093
B^ino81*M^day4:200948:0.0709767
B^ino12*K^BlackFridayM2:201048:0.518948
A^wd0*B^ino87:201475:0.0288577
B^ino43*M^day20:201569:-0.0467696
B^ino93*M^day19:201589:-0.0149937
D^date20120223:201603:-0.0477564
B^ino40*K^BlackFriday1:201689:0.257556
D^date20130116:201849:0.0113752
B^ino96*K^BlackFriday3:202008:0.706333
A^holwd*B^ino37:202062:0.0184698
B^ino9*M^day22:202086:-0.0826087
B^ino57*M^day17:202160:0.080858
B^ino35*M^month5:202200:0.0410028
B^ino105*M^month5:202300:0.0100853
B^ino96*K^ThanksgivingDay:202341:-0.549839
C^sno25*K^BlackFriday1:202359:0.0411079
C^sno38*M^day25:202361:-0.0186222
B^ino50*M^day6:202411:0.0167239
B^ino53*K^BlackFridayM2:202638:-0.219072
B^ino2*M^day21:202913:-0.000973701
C^sno23*M^day29:203049:0.00553179
C^sno26*M^month9:203074:0.0111904
B^ino34*M^day24:203125:-0.0388813
A^wd5*C^sno22:203173:-0.0226729
B^ino106*M^month12:203311:-0.0400608
C^sno34*M^day22:203316:-0.039814
B^ino70*M^day31:203468:-0.149638
A^wd4*B^ino24:203583:0.123532
C^sno7*M^month1:203782:0.00808764
A^wd1*B^ino37:203833:-0.0679662
A^we*B^ino100:203891:-0.0175586
A^wd5*B^ino83:203955:0.0164926
B^ino6*M^month10:204045:-0.0786376
B^ino47*M^day10:204290:0.203846
A^wd6*B^ino20:204406:-0.0717843
B^ino45*M^day14:204531:-0.0269938
B^ino16*M^day26:204568:-0.148791
B^ino47*M^month7:204663:-0.0328693
C^sno23*M^month7:204740:0.00902224
B^ino20*M^day28:204937:0.111583
D^date20130315:204957:-0.0112247
B^ino59*M^month4:204962:0.0110223
A^wd2*B^ino108:204982:-0.113041
B^ino79*M^day23:205043:-0.0321832
B^ino90*M^day28:205076:-0.0783291
A^wd6*B^ino64:205173:0.0977397
B^ino26*M^month11:205226:-0.0256963
B^ino69*M^month10:205287:0.114785
B^ino89*M^day21:205360:-0.0816588
C^sno27*M^day28:205459:-0.0177903
A^holwe*B^ino100:205600:0.0753367
B^ino105*K^BlackFriday1:205655:-0.101178
C^sno7*M^day5:205663:-0.0303221
D^date20141002:205705:-0.00348663
B^ino48*M^day4:205710:0.0309863
C^sno39*M^day1:205721:-0.0854275
B^ino34*M^year2013:205887:0.00341606
C^sno8*M^month6:205918:-0.0293214
B^ino41*M^day28:205959:-0.0749521
A^wd0*B^ino65:205989:0.00347543
B^ino107*M^day13:206218:-0.168783
B^ino31*M^month2:206259:-0.00448036
B^ino94*K^ThanksgivingDay:206319:-0.225638
D^date20140901:206323:0.0530365
C^sno37*M^day4:206374:-0.00479078
A^wd4*C^sno23:206425:-0.0557199
B^ino94*K^BlackFriday3:206482:0.137353
A^wd6*B^ino41:206548:0.109476
B^ino5*M^day25:206720:-0.0201304
B^ino49*M^month10:206726:0.000732183
B^ino102*M^day23:207027:-0.0293863
B^ino101*M^day2:207089:-0.0153916
B^ino16*M^day2:207173:0.151483
B^ino111*M^day5:207207:0.13226
B^ino16*M^day1:207370:0.0740924
B^ino106*K^BlackFridayM3:207451:0.287818
B^ino48*M^month3:207553:-0.0344806
A^wd6*B^ino9:207638:0.187806
D^date20140201:207657:0.128818
C^sno44*M^day14:207890:0.0287831
D^date20140520:207962:-0.00510597
B^ino18*K^BlackFriday1:207998:-0.221311
A^wd1*C^sno39:208000:0.0432525
C^sno36*M^month11:208092:-0.0341582
A^hol*B^ino14:208113:-0.0884571
C^sno43*M^day19:208120:-0.0224752
C^sno35*M^day7:208121:0.000509501
A^we*C^sno42:208214:-0.10744
B^ino5*M^day21:208278:-0.0553627
A^wd2*C^sno15:208372:-0.0129898
B^ino39*K^BlackFriday2:208437:-0.294704
B^ino77*M^day1:208490:0.0401745
A^wd2*B^ino28:208639:-0.0489566
A^wd1*B^ino86:208652:7.10487e-05
B^ino1*M^day18:208732:0.0779865
B^ino66*M^day5:208770:0.0293841
C^sno43*M^day8:208776:0.0329525
B^ino74*M^day10:208796:0.134575
C^sno22*K^BlackFridayM2:208902:-0.0765753
B^ino93*M^day31:209038:0.0788519
B^ino75*M^day31:209127:-0.00624156
D^date20130726:209324:0.0114093
B^ino28*K^BlackFriday:209431:0.221449
A^wd5*C^sno13:209741:-0.0570736
C^sno30*M^day11:209795:0.0488493
D^date20140711:209845:-0.0106499
C^sno42*M^month4:209859:-0.0230937
D^date20121210:209876:0.0113239
B^ino55*M^day18:209952:0.0131278
C^sno34*M^day1:210161:0.172314
C^sno13*M^day19:210260:-0.00927758
B^ino21*M^day7:210268:-0.0143991
M^day24:210423:-0.00640965
A^wd0*B^ino80:210448:-0.0484252
C^sno17*M^day26:210493:-0.0211217
B^ino37*M^day3:210661:0.0613086
C^sno43*K^BlackFriday2:210755:-0.212997
B^ino22*M^day5:210775:-0.137969
A^wd2*B^ino111:210874:-0.113408
C^sno34*M^day2:210878:0.00562334
B^ino79*M^day17:210923:-0.0534849
B^ino71*M^day15:211146:-0.0446532
B^ino9*M^day2:211180:0.0943882
A^holwe*B^ino57:211340:-0.069289
A^wd4*C^sno31:211569:0.0180185
C^sno36*M^month1:211570:0.0321441
D^date20120611:211684:0.0203769
B^ino9*M^day1:211875:0.0883005
B^ino76*M^day9:211900:-0.0594277
B^ino44*K^BlackFriday:211914:-0.114481
B^ino49*M^month1:212027:-0.0487249
A^holwe*B^ino97:212058:-0.296901
B^ino42*M^day1:212144:0.0969927
D^date20131118:212152:-0.132253
B^ino103*M^day29:212416:-0.0907946
A^wd6*B^ino36:212553:0.161943
B^ino83*K^ThanksgivingDay:212919:0.0215557
A^wd4*B^ino1:213072:-0.000908613
B^ino37*M^day5:213145:0.10208
D^date20120321:213258:0.0118079
A^wd6*B^ino61:213461:-0.0613809
A^wd2*B^ino24:213717:-0.151905
B^ino39*M^day28:213781:0.106756
D^date20120407:213805:0.00341892
B^ino72*K^BlackFriday:213954:0.320091
A^wd0*B^ino9:213969:0.0980823
C^sno34*M^day20:214001:-0.00451922
D^date20120804:214121:-0.0194221
B^ino29*K^BlackFriday1:214154:0.256037
A^wd4*B^ino110:214220:0.237997
C^sno37*M^day7:214243:-0.00944567
D^date20130411:214289:-0.030823
B^ino54*M^day22:214529:0.0333598
B^ino74*M^day26:214636:-0.206563
C^sno39*K^BlackFriday:214833:0.587502
D^date20130427:215159:-0.0267026
B^ino68*M^day3:215336:0.0877492
B^ino45*M^day19:215357:0.0186913
B^ino24*K^BlackFriday:215625:-0.378522
B^ino86*M^day11:215696:-0.0480778
B^ino45*M^day30:215737:-0.0093925
B^ino50*K^BlackFriday1:215835:-0.33015
C^sno25*M^day6:216007:0.0329285
B^ino90*K^BlackFriday2:216116:0.0222671
D^date20120209:216180:-0.0234315
B^ino9*M^day20:216227:-0.0839913
D^date20120721:216247:-0.0296195
A^wd4*B^ino46:216404:-0.0292394
B^ino20*K^BlackFriday2:216489:-0.624886
C^sno21*K^BlackFriday3:216546:0.1999
C^sno35*M^day4:216636:0.0433121
B^ino81*M^day9:216713:-0.0678236
C^sno21*K^ThanksgivingDay:216735:0.0887933
B^ino16*K^BlackFriday:216738:-0.212613
B^ino15*K^BlackFridayM2:216862:-0.079222
B^ino55*M^day26:216882:-0.0598302
B^ino111*M^day15:216909:-0.0764256
B^ino38*K^BlackFriday:217053:-0.224745
B^ino72*M^day20:217194:0.0323551
B^ino65*K^BlackFriday1:217434:-0.221666
D^date20140706:217438:-0.157108
B^ino85*K^BlackFridayM3:217477:-0.00932765
B^ino41*M^day30:217496:-0.0742929
A^wd2*B^ino83:217719:-0.0308621
B^ino45*K^BlackFriday2:217734:-0.0213947
A^wd5*B^ino110:218082:0.280715
A^hol*B^ino62:218190:-0.117245
D^date20121017:218355:-0.0164032
C^sno7*M^day3:218403:0.0174363
C^sno42*M^month1:218478:0.0256405
A^wd1*B^ino26:218597:0.0131772
C^sno38*M^day12:218705:0.0068028
B^ino28*M^day1:218815:0.0409367
B^ino13*M^day25:218862:0.0695074
B^ino5*K^ThanksgivingDay:218873:-0.823347
B^ino95*M^month10:218993:0.00653648
C^sno27*M^day8:219000:0.00710225
B^ino42*K^BlackFriday:219160:0.318495
C^sno17*M^day29:219221:-0.114858
C^sno9*M^day9:219264:-0.00395918
A^wd1*C^sno36:219379:0.0474577
B^ino89*K^ThanksgivingDay:219487:0.108777
B^ino77*M^day20:219498:-0.0140014
B^ino31*K^BlackFridayM2:219550:-0.285417
B^ino24*M^day20:219617:0.227504
C^sno5*M^day12:219694:-0.0214155
C^sno43*M^day28:219747:-0.00204015
C^sno19*M^day11:219878:-0.0145633
D^date20130328:219927:0.00522423
C^sno30*M^month12:219943:0.0103617
A^wd4*C^sno41:219998:0.00863814
D^date20130303:220170:0.0104852
B^ino44*M^day2:220205:0.0541923
B^ino13*M^day21:220408:-0.0622306
B^ino16*M^day20:220426:-0.127552
A^wd1*B^ino44:220537:-0.0507793
C^sno2*M^day25:220577:-0.0357828
B^ino58*M^day9:220596:-0.182326
B^ino74*M^day22:220603:0.00891519
B^ino110*M^day24:220662:0.106143
B^ino64*M^month3:220718:0.0100222
D^date20141014:220733:0.0252805
C^sno29*M^year2014:220828:0.00557327
A^we*C^sno12:220920:0.0214949
A^wd6*B^ino16:220937:0.0435362
B^ino9*K^BlackFriday:220939:-0.123318
B^ino44*M^day1:221026:0.236615
B^ino46*K^BlackFridayM2:221163:0.55236
C^sno44*K^BlackFriday2:221287:-0.0533121
C^sno19*M^day27:221374:-0.0242987
B^ino9*M^day29:221401:-0.137224
B^ino24*M^day18:221409:0.0982122
B^ino1*M^day1:221532:-0.19497
D^date20120701:221726:-0.075844
C^sno36*M^day15:221953:0.0880265
B^ino16*M^day18:222218:-0.102027
B^ino100*M^month5:222265:0.0805693
B^ino36*M^day15:222427:-0.096307
B^ino51*M^month3:222496:-0.0494871
B^ino49*M^day15:222536:-0.0894697
B^ino75*M^day28:222599:0.119765
B^ino92*M^day26:222600:-0.110465
B^ino103*M^day2:222709:-0.0397754
A^wd1*B^ino98:222724:-0.0230422
B^ino82*M^month3:222786:0.0129519
A^we*C^sno17:222803:-0.0290861
B^ino103*M^day1:222906:0.0199239
B^ino9*M^day10:223041:0.0473347
C^sno17*K^BlackFriday:223111:-0.297398
A^wd0*C^sno29:223183:0.000219822
C^sno34*M^day10:223251:0.190416
B^ino54*M^day1:223428:-0.0667498
C^sno34*M^month7:223590:-0.00169253
C^sno4*K^BlackFridayM2:223611:-0.0383554
C^sno42*M^day5:223799:0.324142
B^ino44*M^day26:223856:-0.0485299
C^sno6*M^day12:223943:0.0167387
C^sno26*M^day11:224063:0.00569487
C^sno30*K^BlackFridayM3:224083:-0.0323181
D^date20141013:224094:0.073842
B^ino25*M^day18:224255:0.0213494
C^sno45*K^BlackFriday1:224439:0.0759573
A^holwe*B^ino93:224605:-0.0753398
B^ino11*K^BlackFridayM2:224704:-0.139562
D^date20120125:224793:-0.0523911
B^ino26*M^day15:224887:-0.0952828
A^wd4*C^sno1:224892:0.0138001
B^ino22*M^month4:224931:-0.102632
A^holwd*B^ino98:225139:0.0775945
C^sno40*M^month2:225169:0.00097537
D^date20130525:225227:-0.066777
B^ino38*M^day29:225295:0.221862
C^sno33*M^day30:225371:-0.0339665
B^ino65*M^month6:225412:0.0181782
B^ino67*K^BlackFridayM3:225454:-0.161525
B^ino101*M^day29:225476:-0.00873852
B^ino86*M^day27:225480:0.00516057
B^ino16*M^day29:225648:-0.192941
B^ino44*M^day22:225703:-0.0122738
B^ino41*M^day31:225767:-0.0199227
A^wd3*B^ino89:225795:0.0219171
B^ino81*M^day7:225841:-0.0345004
A^holwe*B^ino72:225939:0.0568933
B^ino10*K^BlackFridayM3:225944:-0.194993
B^ino42*M^day18:225968:-0.00298285
A^wd4*B^ino14:226025:0.0545232
B^ino50*M^day17:226101:-0.0604627
C^sno31*M^day1:226187:0.0151274
B^ino99*M^day6:226320:-0.046694
A^wd4*C^sno15:226334:0.00656319
C^sno17*M^day20:226351:-0.0433793
B^ino11*M^day24:226405:0.0416241
B^ino87*K^BlackFriday:226453:0.340526
D^date20120920:226480:-0.0715268
B^ino49*M^day3:226590:-0.0119171
B^ino24*M^day29:226715:-0.00681639
B^ino9*M^day18:226723:-0.035018
B^ino30*M^month9:226803:0.0289166
B^ino38*M^month7:227042:-0.101138
B^ino16*M^day10:227048:0.105475
A^wd4*B^ino28:227093:-0.03
B^ino16*M^month7:227229:-0.0123367
B^ino47*M^day26:227314:-0.00684142
C^sno28*M^day6:227373:0.110231
B^ino25*M^month7:227432:-0.00607967
B^ino28*M^day22:227450:0.0259166
D^date20130501:227455:0.0890462
C^sno14*M^month1:227467:-0.0222964
B^ino78*M^month7:227622:0.0137093
B^ino8*M^day24:227647:-0.233956
A^wd5*C^sno1:227666:0.0553141
C^sno24*M^day11:227715:0.00652814
B^ino13*M^month8:227755:0.051945
C^sno11*K^BlackFriday3:227832:-0.262598
A^wd1*B^ino84:227930:0.0240474
C^sno11*K^ThanksgivingDay:227973:-0.0699966
C^sno7*M^month4:228011:-0.0124619
C^sno15*K^BlackFridayM2:228025:-0.167541
D^date20130910:228061:0.11251
D^date20140823:228127:0.026154
B^ino32*K^ThanksgivingDay:228134:0.192291
C^sno43*M^day14:228150:0.0522583
A^wd3*C^sno9:228232:-0.00355911
C^sno12*M^month2:228324:0.0189266
B^ino64*M^day16:228372:-0.122921
D^date20130223:228384:0.0953364
D^date20131012:228991:0.055871
A^wd6*C^sno34:229104:-0.0426536
A^holwd*C^sno3:229164:0.0104244
D^date20120813:229174:0.0112445
C^sno39*M^day10:229243:-0.0378354
B^ino73*M^day26:229285:0.0748515
A^wd2*C^sno23:229299:-0.00698137
B^ino37*M^month1:229312:-0.0153885
D^date20131030:229349:-0.0560608
C^sno7*M^month8:229448:-0.00111032
B^ino89*M^month10:229520:0.0398412
B^ino51*M^day8:229617:0.00490236
A^wd0*B^ino73:229781:-0.010649
D^date20120214:229821:-0.0926745
A^wd4*C^sno18:229922:-0.0243399
B^ino28*K^BlackFridayM3:230274:0.390321
B^ino79*K^BlackFridayM2:230355:-0.227557
B^ino103*M^month12:230387:-0.0834339
B^ino26*M^day25:230415:0.0932939
B^ino7*M^day23:230462:0.0565059
B^ino85*M^day1:230584:-0.142564
B^ino56*M^day30:230641:0.0273831
B^ino55*M^month9:230832:-0.0209255
B^ino40*M^day24:231018:-0.0362201
B^ino17*M^day1:231138:-0.0594301
B^ino23*M^day25:231429:0.0110645
C^sno2*M^month4:231431:0.00438857
A^wd0*C^sno6:231562:0.0876391
A^wd1*B^ino11:231590:-0.00450206
B^ino81*M^day28:231809:0.0111558
B^ino44*K^BlackFridayM3:232031:0.220806
C^sno19*M^month7:232092:-0.0403547
D^date20130216:232200:0.000390291
C^sno30*M^day26:232316:-0.0350754
B^ino9*M^day27:232470:-0.11625
B^ino45*M^day13:232478:-0.0186903
A^hol*C^sno17:232509:-0.0199766
C^sno16*M^day12:232623:-0.00773287
B^ino37*M^day12:232675:0.0925729
B^ino89*M^month11:232835:-0.119272
B^ino95*K^BlackFriday3:232899:0.101856
A^we*C^sno31:232967:0.00833583
A^wd5*C^sno42:232974:-0.0315585
B^ino26*M^day21:232985:0.098444
A^holwd*B^ino40:233144:0.0429602
B^ino95*K^ThanksgivingDay:233150:-0.0887218
C^sno17*M^day11:233154:0.0690091
C^sno20*K^BlackFriday2:233612:0.0202703
C^sno27*M^day16:233619:0.0130606
C^sno24*K^BlackFriday:233670:0.0634179
B^ino72*M^day27:233695:-0.0271654
A^wd3*B^ino26:233844:-0.0263193
D^date20120524:233951:-0.00722504
B^ino109*M^day15:233985:0.0810819
B^ino102*M^day24:234038:-0.0216241
D^date20120218:234158:0.0076189
B^ino90*M^day16:234260:0.0839612
B^ino7*M^day17:234278:-0.0145402
D^date20120824:234484:0.0188558
C^sno39*M^day27:234540:0.065371
B^ino5*M^month1:234635:0.00451136
A^wd5*C^sno18:234764:-0.0167663
M^month5:234799:-0.00914741
B^ino14*M^day22:234886:-0.100981
B^ino107*M^day28:235058:0.106191
C^sno5*M^day5:235092:-0.12693
B^ino84*K^BlackFriday2:235101:-0.150724
C^sno42*K^ThanksgivingDay:235292:0.0385878
A^wd3*B^ino67:235551:-0.0295804
M^day17:235626:-0.0132134
A^hol*B^ino50:235722:0.0535052
A^wd4*C^sno42:235808:-0.060565
B^ino103*M^month9:235818:-0.0288932
B^ino77*M^day27:235999:-0.0435529
A^wd3*B^ino44:236008:-0.0629821
C^sno38*M^day5:236075:0.145692
B^ino79*M^day24:236150:-0.0578747
B^ino82*K^BlackFriday2:236376:-0.252185
B^ino53*K^BlackFriday1:236440:0.303926
B^ino86*M^day10:236447:-0.0148144
B^ino48*M^day14:236462:-0.0802777
B^ino106*K^BlackFriday:236494:0.13193
D^date20140421:236544:-0.00610805
B^ino101*M^day27:236555:-0.0153177
B^ino38*M^day27:236736:0.00517607
B^ino8:236824:-0.0376005
B^ino96*M^day3:236850:-0.139587
B^ino12*K^BlackFriday1:236878:0.429304
B^ino80*M^day21:236907:0.00343847
B^ino16*M^day27:236991:-0.207749
B^ino15*M^day6:237240:0.0645058
A^we*C^sno2:237290:0.00794339
A^wd2*B^ino50:237368:0.0926566
B^ino73*K^BlackFridayM3:237450:-0.0432248
D^date20130131:237536:-0.0585763
D^date20130920:237565:-0.00713348
B^ino60*M^day30:237596:0.033627
K^BlackFriday1:237636:-0.135774
B^ino18*K^BlackFridayM2:237672:0.218726
B^ino51*M^day31:237690:-0.0476589
B^ino71*K^BlackFriday3:237750:0.471087
B^ino60*M^day8:237800:0.0722444
C^sno43*M^day7:238035:0.0797694
D^date20131109:238086:-0.0115275
A^wd5:238147:0.00428009
C^sno35*M^day30:238166:-0.0250123
B^ino93*M^day9:238310:0.0276177
B^ino64*K^BlackFriday2:238388:0.177558
B^ino77*M^day11:238471:-0.101295
B^ino71*K^ThanksgivingDay:238539:0.159896
B^ino86*K^BlackFriday:238549:0.132169
D^date20140413:238671:0.111367
B^ino30*M^day22:238758:0.0471873
C^sno12*M^day23:238825:-0.00543332
B^ino69*M^month8:239124:-0.0536745
C^sno36*M^month8:239164:0.0107083
C^sno42*M^day12:239181:0.0783706
C^sno6*M^day5:239293:0.221813
D^date20121028:239429:0.0213323
W^isRS:239445:0.0336063
C^sno40*M^day17:239492:-0.0047822
B^ino87*M^day27:239496:0.0216877
B^ino10*M^day1:239525:0.152928
B^ino16*M^day11:239591:0.138083
A^wd2*B^ino25:239679:-0.0868223
A^wd0*B^ino58:239738:-0.00594711
C^sno24*M^day10:239756:0.0439816
A^wd0*B^ino17:239798:-0.00377941
B^ino81*M^day14:239828:-0.0256999
D^date20140525:239921:-0.0631111
C^sno12*M^month6:240129:0.0063076
B^ino104*M^day25:240357:0.0170918
B^ino5*M^day5:240594:0.201603
A^wd1*C^sno5:241010:-0.00698304
D^date20120930:241043:0.0897858
D^date20130322:241247:-0.00208592
B^ino92*M^month9:241418:-0.0138478
B^ino105*K^BlackFridayM2:241473:-0.0393155
D^date20130224:241497:0.0331373
B^ino45*M^month3:241564:-0.0219667
A^hol*B^ino25:241613:-0.0995157
C^sno40*M^day23:241820:0.0106556
A^wd0*C^sno32:241914:0.022166
B^ino8*M^day6:241980:0.214605
B^ino33*K^BlackFriday2:242028:-0.281605
B^ino12*M^day23:242296:0.00229216
B^ino103*K^BlackFridayM3:242567:-0.160532
C^sno21*M^day5:242612:0.0823455
C^sno38*M^month11:242652:0.00683761
B^ino28*M^month12:242678:0.0380907
C^sno18*M^day3:242737:-0.00273132
C^sno29*M^day1:242841:0.144682
C^sno17*M^day27:242842:-0.0275996
B^ino9*M^day11:243278:0.0413616
B^ino97*M^month11:243309:-0.0841699
A^we*B^ino75:243389:0.0124104
D^date20120401:243433:-0.0119243
C^sno33*M^day16:243524:-0.048383
B^ino108*M^day30:243549:-0.164562
A^wd4*B^ino97:243583:0.0278533
B^ino108*M^day8:243625:-0.192466
A^wd1*B^ino47:243651:0.0871916
C^sno2*M^day15:243673:-0.0385275
B^ino60*K^BlackFriday2:243747:0.156652
C^sno13*M^day7:243839:0.0393002
B^ino64*M^day19:243855:0.00781965
C^sno34*M^day11:243996:0.0542922
B^ino44*M^month12:244267:0.0103076
C^sno26*M^day10:244272:0.153534
D^date20140821:244348:0.00497603
B^ino48*M^day28:244475:0.0155537
B^ino64*M^day30:244491:-0.0953162
A^hol*B^ino8:244567:-0.0474768
B^ino43*K^Else:244570:-0.0163097
B^ino97*M^month10:244606:0.031414
A^wd5*B^ino71:244687:-0.00147367
A^wd0*B^ino51:244732:-0.00267434
B^ino13*M^day15:244886:0.0860033
B^ino3*M^day22:244956:-0.0702236
C^sno30*M^day2:245025:0.132081
B^ino47*M^month9:245104:-0.0333943
B^ino37*K^ThanksgivingDay:245170:-0.173646
B^ino41*M^day4:245234:-0.0404778
B^ino54*K^BlackFridayM3:245241:0.134466
C^sno16*K^ThanksgivingDay:245246:-0.33196
C^sno30*M^day1:245358:-0.0992103
A^wd3*C^sno37:245393:-0.0453532
A^wd3*B^ino84:245451:0.0348365
D^date20120105:245479:0.0859208
B^ino94*M^day15:245486:0.0740941
C^sno44*M^day13:245503:0.00603199
B^ino98*M^day22:245520:0.094332
A^wd0*B^ino74:245522:0.0249987
A^wd1*C^sno9:245529:-0.0017314
A^wd2*B^ino93:245650:0.0085175
A^we*B^ino83:245739:0.175941
B^ino95*M^day12:245743:-0.128211
C^sno10*M^day29:245754:-0.0749776
B^ino16*M^year2014:245775:0.00299788
A^we*C^sno15:245864:0.0513787
A^wd6*B^ino17:245873:0.125619
A^wd6*C^sno27:245960:0.0288076
A^wd2*C^sno42:245962:0.00920606
B^ino12*M^day6:246014:0.0286741
B^ino67*K^BlackFriday:246075:-0.229609
C^sno24*M^day26:246140:-0.0410767
D^date20131128:246210:-0.0608239
C^sno18*M^day5:246349:0.00622988
B^ino68*K^ThanksgivingDay:246399:-0.285863
C^sno1*M^month8:246468:0.0647864
B^ino15*K^BlackFriday1:246536:-0.369139
B^ino10*K^BlackFriday:246541:-0.0541496
B^ino42*M^month9:246560:-0.419376
B^ino107*M^day31:246610:0.174957
A^we*B^ino28:246627:0.0676045
A^wd6*B^ino34:246782:-0.00782418
B^ino86*M^day2:246834:-0.0119481
B^ino6*K^ThanksgivingDay:246978:-0.584675
B^ino87*K^BlackFridayM3:247040:-0.472496
A^wd5*C^sno17:247051:-0.0230196
A^wd4*B^ino77:247478:-0.053498
C^sno39*M^month12:247504:0.00933337
A^wd4*B^ino50:247506:-0.00264907
B^ino37*M^day21:247517:-0.0513911
A^holwd*B^ino88:247520:-0.0160251
B^ino50*K^BlackFridayM2:247565:-0.122358
B^ino73*M^day11:247642:-0.105006
B^ino86*M^day1:247677:-0.0175436
A^wd0*B^ino69:247860:0.0151796
A^wd1*C^sno14:247888:0.0150018
B^ino29*K^BlackFridayM2:247964:0.0822561
D^date20130903:248013:0.0657704
D^date20140126:248048:0.0417223
C^sno36*M^day12:248145:0.0409179
C^sno30*M^day20:248174:-0.0393593
A^wd4*B^ino35:248282:-0.0122712
A^wd5*C^sno21:248299:-0.0521324
C^sno43*M^month3:248409:-0.0329659
C^sno9*M^day31:248552:0.0185239
B^ino24*M^month12:248744:0.00847268
B^ino27*K^BlackFriday2:248909:0.225331
B^ino37*M^day25:249035:-0.00496292
D^date20120225:249216:0.00983405
B^ino38*M^month12:249404:-0.0671108
D^date20131221:249490:-0.0924571
B^ino11*M^day23:249568:-0.0990276
B^ino3*M^day10:249595:-0.0946188
A^wd1*B^ino88:249751:0.0476646
C^sno29*K^BlackFriday:249905:0.0332563
B^ino95*M^month8:249986:-0.0363724
C^sno6*M^day3:250049:0.0141022
B^ino66*K^BlackFriday3:250324:0.439448
C^sno2*M^day5:250355:0.0129495
B^ino77*M^month9:250362:-0.0887814
A^wd4*C^sno17:250405:-0.0343413
B^ino44*M^day11:250511:0.0331514
B^ino66*K^ThanksgivingDay:250537:-1.39433
A^wd6*B^ino51:250683:-0.0627432
B^ino105*M^month2:250732:0.00365186
B^ino46*K^BlackFriday1:250877:0.135566
B^ino60*M^day28:251139:-0.012671
B^ino63*M^day26:251265:0.0671012
C^sno17*K^BlackFridayM3:251410:-0.382264
B^ino70*M^day4:251609:-0.0913751
D^date20140919:251695:-0.0142288
B^ino80*M^day12:251733:-0.0413845
B^ino48*K^BlackFriday2:251867:-0.0576053
B^ino85*M^day10:251994:-0.134474
D^date20120127:252034:-0.0604591
A^wd3*B^ino37:252072:-0.0949459
B^ino94*M^day5:252100:-0.0349336
B^ino104*K^BlackFriday3:252129:-0.0358903
C^sno15*M^day23:252313:-0.01634
B^ino99*M^month2:252315:-0.102214
D^date20120101:252401:-0.123043
B^ino11*M^day17:252408:-0.180132
A^we*C^sno1:252426:0.0285821
A^we*B^ino111:252454:0.094902
B^ino39*M^day4:252512:-0.16948
C^sno24*M^day22:252587:-0.0202944
C^sno13*M^day4:252602:-0.0114889
C^sno30*K^BlackFriday:252614:-0.043906
B^ino78*M^month9:252705:-0.129947
B^ino20*M^day7:252729:-0.111253
B^ino17*M^month7:252789:-0.0137677
B^ino104*K^ThanksgivingDay:252828:0.187699
B^ino33*M^day28:253004:0.0579233
D^date20140427:253092:0.00313711
B^ino65*K^BlackFridayM2:253260:-0.107999
B^ino5*M^day3:253358:0.115965
D^date20120602:253465:0.0280414
C^sno7*K^ThanksgivingDay:253556:0.0229876
B^ino50*M^day24:253608:0.0127621
B^ino70*M^month3:253846:0.0593328
B^ino85*K^BlackFriday:253968:0.134349
B^ino14*M^day29:254009:-0.0464449
B^ino107*M^day19:254121:-0.0603976
B^ino19*K^BlackFriday3:254321:0.0136817
B^ino19*K^ThanksgivingDay:254476:0.0260892
C^sno19*M^day26:254489:0.00059557
C^sno30*M^day10:254604:-0.0543098
B^ino108*M^day14:254743:-0.0136013
B^ino41*M^day9:254863:-0.0408332
C^sno30*M^month7:254969:-0.0354123
D^date20120217:255101:0.0584314
B^ino81*K^BlackFriday2:255137:-0.114294
C^sno14*M^month8:255173:0.0169535
B^ino3*M^day20:255257:0.00880837
B^ino111*M^day12:255261:0.0675406
